svm_type c_svc
kernel_type rbf
gamma 0.111
nr_class 2
total_sv 12014
rho 8.52292
label 1 0
nr_sv 6007 6007
SV
1 1:0.739726 2:0.054795 3:0.027397 5:0.024361517 6:0.01960802 7:0.017039762 
1 1:0.775194 2:0.023256 3:0.031008 5:0.019068776 6:0.0076740077 7:0.018481756 
1 1:0.769585 2:0.011521 3:0.029954 7:0.016620768 
1 1:0.786624 2:0.015924 3:0.022293 5:0.01651186 6:0.0066450066 7:0.017535341 
1 1:0.769231 2:0.014514 3:0.059507 5:0.029042983 7:0.020443201 
1 1:0.681081 2:0.081081 3:0.048649 5:0.014171127 6:0.045627046 7:0.017336848 
1 1:0.779685 2:0.007153 3:0.032904 5:0.019434049 7:0.01673122 
1 1:0.765625 2:0.015625 3:0.054688 7:0.017625762 
1 1:0.755102 2:0.013605 3:0.027211 5:0.037369731 7:0.016550524 
1 1:0.691824 2:0.012579 3:0.113208 5:0.035498636 7:0.016106768 
1 1:0.768627 2:0.017647 3:0.021569 5:0.01669077 7:0.016021043 
1 1:0.777108 2:0.016064 3:0.01004 5:0.011882576 7:0.015366341 
1 1:0.762295 2:0.02459 3:0.045082 5:0.02900571 7:0.019267293 
1 1:0.76259 2:0.014388 3:0.035971 5:0.037653005 7:0.01737147 
1 1:0.727273 2:0.024793 3:0.090909 5:0.019359504 7:0.019401329 
1 1:0.781609 2:0.022989 3:0.057471 5:0.034454997 7:0.022743201 
1 1:0.759804 2:0.019608 3:0.029412 5:0.027708616 7:0.016080823 
1 1:0.734417 2:0.02168 3:0.04065 5:0.036184456 7:0.013616232 
1 1:0.77 2:0.02 3:0.035 5:0.025181519 7:0.01804878 
1 1:0.765957 2:0.007092 3:0.035461 5:0.022386057 7:0.014400622 
1 1:0.745679 2:0.05679 3:0.02963 5:0.048447214 6:0.024369024 7:0.018533573 
1 1:0.7833 2:0.007952 3:0.021869 5:0.017085862 7:0.015868207 
1 1:0.724311 2:0.027569 3:0.055138 5:0.012732396 7:0.017895348 
1 1:0.767932 2:0.008439 3:0.054852 5:0.019284958 7:0.019887823 
1 1:0.75 2:0.047297 3:0.027027 5:0.01840532 6:0.02963103 7:0.01668589 
1 1:0.750742 2:0.014837 3:0.040059 5:0.029684076 7:0.015904323 
1 1:0.793388 2:0.008264 3:0.049587 5:0.01822641 7:0.020610762 
1 1:0.726667 2:0.033333 3:0.053333 5:0.072547821 7:0.016707317 
1 1:0.769802 2:0.012376 3:0.049505 5:0.01241185 6:0.004995005 7:0.018126659 
1 1:0.789116 2:0.006803 3:0.040816 7:0.021528122 
1 1:0.618367 2:0.028571 3:0.116327 5:0.060426699 7:0.016886512 
1 1:0.721519 2:0.046414 3:0.033755 5:0.025636247 6:0.023217023 7:0.014960896 
1 1:0.72093 2:0.034884 3:0.075581 5:0.053918865 7:0.019604366 
1 1:0.766055 2:0.022936 3:0.022936 5:0.013052942 7:0.015971134 
1 1:0.77439 2:0.021341 3:0.039634 5:0.014849492 7:0.018664488 
1 1:0.723301 2:0.058252 3:0.082524 5:0.020552234 6:0.0027570028 7:0.064409189 
1 1:0.742515 2:0.023952 3:0.047904 5:0.037459186 7:0.014531915 
1 1:0.785965 2:0.003509 3:0.021053 5:0.0099667526 7:0.016003421 
1 1:0.725888 2:0.071066 3:0.055838 5:0.044906296 6:0.036144036 7:0.020552183 
1 1:0.730061 2:0.04908 3:0.03681 5:0.057899602 6:0.011649012 7:0.019265299 
1 1:0.727811 2:0.017751 3:0.059172 5:0.033277176 7:0.016163945 
1 1:0.777778 2:0.015152 3:0.040404 5:0.021327509 7:0.021526238 
1 1:0.767857 2:0.010714 3:0.089286 5:0.0077080196 7:0.0421385 
1 1:0.738693 2:0.027638 3:0.070352 5:0.062223249 7:0.018353963 
1 1:0.733871 2:0.043011 3:0.053763 5:0.069670359 7:0.017538683 
1 1:0.702602 2:0.048327 3:0.081784 5:0.085794582 7:0.017725994 
1 1:0.756098 2:0.014634 3:0.043902 5:0.02464479 7:0.017995244 
1 1:0.707665 2:0.040998 3:0.044563 5:0.050370492 6:0.0022530023 7:0.014477628 
1 1:0.788066 2:0.006173 3:0.024691 5:0.016370223 7:0.017138415 
1 1:0.788419 2:0.008909 3:0.033408 5:0.010540754 7:0.019202561 
1 1:0.794118 2:0.003268 3:0.022876 5:0.0090051138 7:0.01649928 
1 1:0.761092 2:0.020478 3:0.030717 5:0.030056804 7:0.015483226 
1 1:0.744939 2:0.040486 3:0.044534 5:0.042356835 7:0.01737928 
1 1:0.740586 2:0.029289 3:0.033473 5:0.013030579 7:0.014593329 
1 1:0.767442 2:0.027907 3:0.051163 5:0.035416636 6:0.0071250071 7:0.02387975 
1 1:0.797297 2:0.004505 3:0.027027 5:0.011450211 7:0.017880683 
1 1:0.771982 2:0.019374 3:0.023845 5:0.023630969 6:0.0015840016 7:0.017202207 
1 1:0.774725 2:0.016484 3:0.032967 5:0.030183531 7:0.016550524 
1 1:0.744597 2:0.086444 3:0.043222 5:0.010667482 6:0.037215037 7:0.025109012 
1 1:0.621262 2:0.10299 3:0.083056 5:0.16218896 7:0.025139774 
1 1:0.73913 2:0.019324 3:0.033816 7:0.013697421 
1 1:0.774674 2:0.022346 3:0.042831 5:0.021409509 6:0.0068940069 7:0.019768817 
1 1:0.781705 2:0.014553 3:0.04158 5:0.018040046 7:0.020954817 
1 1:0.709184 2:0.040816 3:0.05102 5:0.078966201 6:0.012711013 7:0.014683921 
1 1:0.75 2:0.02381 3:0.035714 5:0.047030847 7:0.015340689 
1 1:0.784615 2:0.015385 3:0.107692 5:0.011062574 7:0.031613512 
1 1:0.761062 2:0.013274 3:0.066372 5:0.020939871 7:0.019210012 
1 1:0.754448 2:0.02847 3:0.046263 5:0.051824132 7:0.018726671 
1 1:0.805405 2:0.005405 3:0.040541 5:0.01130112 7:0.021736982 
1 1:0.794595 2:0.013514 3:0.043243 5:0.026582977 7:0.023104811 
1 1:0.808333 2:0.008333 3:0.058333 5:0.01309767 7:0.028912604 
1 1:0.706294 2:0.034965 3:0.055944 4:0.0036900369 5:0.070102724 7:0.01360225 
1 1:0.774799 2:0.016086 3:0.040214 5:0.027060069 6:0.0027210027 7:0.01801478 
1 1:0.762712 2:0.025424 3:0.072034 5:0.021238054 7:0.036275317 
1 1:0.694779 2:0.076305 3:0.048193 5:0.0098772979 6:0.055629056 7:0.018488591 
1 1:0.71345 2:0.040936 3:0.046784 5:0.079137656 7:0.016795037 
1 1:0.760234 2:0.01462 3:0.046784 5:0.01634786 7:0.016260165 
1 1:0.772834 2:0.018735 3:0.044496 5:0.036259001 7:0.020548921 
1 1:0.775591 2:0.027559 3:0.023622 5:0.019135867 6:0.011553012 7:0.018700787 
1 1:0.755 2:0.035 3:0.03 5:0.032785174 6:0.010554011 7:0.017332317 
1 1:0.782895 2:0.006579 3:0.026316 5:0.019210413 7:0.015564829 
1 1:0.756757 2:0.040541 3:0.031532 5:0.032889538 6:0.013236013 7:0.018677213 
1 1:0.771429 2:0.012987 3:0.041558 5:0.032129173 7:0.018371872 
1 1:0.781609 2:0.005747 3:0.037356 5:0.014968765 7:0.01745164 
1 1:0.75 2:0.033654 3:0.043269 5:0.03483518 7:0.01882036 
1 1:0.729107 2:0.033141 3:0.033141 5:0.036273911 7:0.014444366 
1 1:0.776398 2:0.006211 3:0.037267 5:0.017257317 7:0.016361159 
1 1:0.741259 2:0.013986 3:0.027972 5:0.022520239 7:0.014113933 
1 1:0.7934 2:0.004304 3:0.022956 5:0.0075440192 7:0.017295378 
1 1:0.704434 2:0.049261 3:0.054187 5:0.077885289 7:0.020124957 
1 1:0.737705 2:0.02459 3:0.07377 5:0.018360592 7:0.020291884 
1 1:0.774566 2:0.009634 3:0.042389 5:0.025032427 7:0.017493774 
1 1:0.732558 2:0.02907 3:0.034884 5:0.052867771 7:0.014995744 
1 1:0.77665 2:0.025381 3:0.035533 5:0.011241483 6:0.0090510091 7:0.020521232 
1 1:0.75 2:0.02459 3:0.057377 5:0.028595709 6:0.0038370038 7:0.019542183 
1 1:0.761905 2:0.015873 3:0.047619 5:0.043087382 7:0.016744098 
1 1:0.726636 2:0.025701 3:0.07243 5:0.03508118 7:0.018164463 
1 1:0.684615 2:0.046154 3:0.092308 5:0.1090901 7:0.019230768 
1 1:0.706161 2:0.056872 3:0.085308 5:0.020231688 6:0.0027150027 7:0.063894348 
1 1:0.77619 2:0.004762 3:0.028571 5:0.013410761 7:0.016144018 
1 1:0.772074 2:0.014374 3:0.051335 5:0.021320054 7:0.02188611 
1 1:0.743083 2:0.035573 3:0.031621 5:0.040187557 6:0.0080850081 7:0.017882963 
1 1:0.755294 2:0.014118 3:0.035294 5:0.045182115 7:0.014203732 
1 1:0.681909 2:0.033797 3:0.049702 4:0.0036900369 5:0.042252471 6:0.0072870073 7:0.014971146 
1 1:0.718954 2:0.058824 3:0.039216 5:0.019068776 6:0.030690031 7:0.015582659 
1 1:0.691489 2:0.053191 3:0.12766 5:0.01616895 6:0.0032550033 7:0.089711988 
1 1:0.725962 2:0.009615 3:0.072115 5:0.012404395 7:0.017618433 
1 1:0.773756 2:0.0181 3:0.040724 5:0.022728967 7:0.018099549 
1 1:0.756654 2:0.011407 3:0.041825 5:0.02823789 7:0.018362238 
1 1:0.770833 2:0.013021 3:0.036458 5:0.034671179 7:0.017069994 
1 1:0.742857 2:0.028571 3:0.042857 5:0.015527858 6:0.012501013 7:0.020905921 
1 1:0.714286 2:0.014778 3:0.073892 5:0.047992486 7:0.01399736 
1 1:0.697561 2:0.097561 3:0.039024 5:0.067560717 6:0.036255036 7:0.019690659 
1 1:0.707101 2:0.053254 3:0.042899 5:0.069223085 6:0.006966007 7:0.015541567 
1 1:0.766129 2:0.024194 3:0.104839 5:0.0038018279 7:0.096479146 
1 1:0.776923 2:0.015385 3:0.030769 5:0.021424418 7:0.016322701 
1 1:0.770492 2:0.021858 3:0.027322 5:0.015304221 6:0.012321012 7:0.016226841 
1 1:0.782765 2:0.014363 3:0.025135 5:0.0177195 6:0.0017820018 7:0.018424049 
1 1:0.784574 2:0.010638 3:0.026596 5:0.020276415 7:0.017887262 
1 1:0.754412 2:0.019118 3:0.055882 5:0.027969526 7:0.019117646 
1 1:0.771186 2:0.021186 3:0.055085 5:0.038033188 7:0.020256305 
1 1:0.790055 2:0.01105 3:0.049724 5:0.012344759 7:0.020347665 
1 1:0.707094 2:0.036613 3:0.075515 5:0.069372177 7:0.016492713 
1 1:0.72449 2:0.017007 3:0.054422 5:0.037802096 7:0.02044964 
1 1:0.769115 2:0.014993 3:0.043478 5:0.037593368 7:0.018128128 
1 1:0.722222 2:0.013889 3:0.069444 5:0.037272822 7:0.016937671 
1 1:0.751468 2:0.041096 3:0.021526 5:0.031301716 6:0.023094023 7:0.017051695 
1 1:0.737968 2:0.053476 3:0.032086 5:0.057899602 6:0.017475017 7:0.01679275 
1 1:0.747423 2:0.036082 3:0.036082 5:0.043512293 6:0.0058380058 7:0.016155396 
1 1:0.763415 2:0.019512 3:0.036585 6:0.0026940027 7:0.016567518 
1 1:0.736501 2:0.049676 3:0.043197 5:0.056617417 6:0.011391011 7:0.020808091 
1 1:0.756436 2:0.021782 3:0.047525 5:0.044637932 7:0.018147793 
1 1:0.761194 2:0.034826 3:0.052239 5:0.031301716 7:0.021675159 
1 1:0.774744 2:0.013652 3:0.03413 5:0.0090796595 7:0.017085659 
1 1:0.713873 2:0.037572 3:0.092486 5:0.061380884 6:0.0027450027 7:0.019261951 
1 1:0.745645 2:0.02439 3:0.038328 5:0.030846988 7:0.015403244 
1 1:0.790295 2:0.006932 3:0.029463 5:0.016862225 7:0.018683689 
1 1:0.768638 2:0.010283 3:0.03599 5:0.021141145 7:0.01658411 
1 1:0.740458 2:0.045802 3:0.022901 5:0.044108658 6:0.017751018 7:0.01573264 
1 1:0.773196 2:0.015464 3:0.041237 5:0.024518062 7:0.019109884 
1 1:0.78673 2:0.014218 3:0.033175 5:0.018002773 7:0.017945902 
1 1:0.748428 2:0.018868 3:0.044025 7:0.016183463 
1 1:0.738602 2:0.012158 3:0.030395 5:0.021320054 7:0.019441768 
1 1:0.746479 2:0.035211 3:0.035211 6:0.024063024 7:0.016059774 
1 1:0.723164 2:0.022599 3:0.073446 5:0.043512293 7:0.017707043 
1 1:0.784672 2:0.016423 3:0.029197 5:0.017428772 6:0.0035070035 7:0.019038189 
1 1:0.768595 2:0.011019 3:0.027548 5:0.028558436 7:0.017536787 
1 1:0.765203 2:0.037162 3:0.030405 5:0.028222981 6:0.014601015 7:0.019044579 
1 1:0.790146 2:0.020073 3:0.020073 5:0.01909114 6:0.011523012 7:0.017380274 
1 1:0.765957 2:0.007092 3:0.035461 5:0.022386057 7:0.014400622 
1 1:0.780899 2:0.005618 3:0.033708 7:0.01805289 
1 1:0.71134 2:0.044674 3:0.072165 5:0.090580412 7:0.017244994 
1 1:0.648649 2:0.03861 3:0.096525 5:0.056334143 7:0.018692909 
1 1:0.69112 2:0.050193 3:0.081081 4:0.0036900369 5:0.027171887 6:0.014580015 7:0.019375646 
1 1:0.748752 2:0.034942 3:0.043261 5:0.047097938 7:0.017663652 
1 1:0.73913 2:0.03913 3:0.052174 5:0.065779077 7:0.018027573 
1 1:0.776836 2:0.00565 3:0.042373 5:0.013656762 7:0.018809427 
1 1:0.743191 2:0.031128 3:0.054475 5:0.06194743 7:0.017130116 
1 1:0.646809 2:0.025532 3:0.07234 5:0.042677381 7:0.013596262 
1 1:0.77037 2:0.007407 3:0.02963 5:0.021238054 7:0.015853659 
1 1:0.761658 2:0.010363 3:0.036269 5:0.0075514738 7:0.015591433 
1 1:0.741228 2:0.02193 3:0.030702 5:0.026478613 7:0.015056695 
1 1:0.804598 2:0.003831 3:0.032567 5:0.0086472947 7:0.020138305 
1 1:0.768212 2:0.006623 3:0.02649 5:0.021923874 7:0.01372961 
1 1:0.659864 2:0.081633 3:0.034014 5:0.11222101 6:0.019356019 7:0.019288201 
1 1:0.705036 2:0.035971 3:0.086331 5:0.056617417 7:0.017327604 
1 1:0.792291 2:0.010707 3:0.029979 5:0.0051361949 7:0.018958585 
1 1:0.754777 2:0.025478 3:0.02707 5:0.02464479 7:0.017622726 
1 1:0.773973 2:0.006849 3:0.054795 5:0.016601315 7:0.018752085 
1 1:0.751073 2:0.038627 3:0.023605 5:0.022102784 6:0.02001602 7:0.017651524 
1 1:0.740458 2:0.015267 3:0.061069 5:0.041298287 7:0.016803201 
1 1:0.75 2:0.02381 3:0.043651 5:0.010943301 6:0.013215013 7:0.016477933 
1 1:0.768212 2:0.013245 3:0.043046 5:0.03439536 7:0.01750525 
1 1:0.745679 2:0.05679 3:0.02963 5:0.048447214 6:0.024369024 7:0.018533573 
1 1:0.778226 2:0.008065 3:0.028226 5:0.023593696 7:0.015538945 
1 1:0.77044 2:0.012579 3:0.044025 5:0.033239903 7:0.017199726 
1 1:0.769795 2:0.01173 3:0.032258 5:0.018599138 7:0.017917171 
1 1:0.742857 2:0.042857 3:0.042857 5:0.036363365 6:0.014634015 7:0.01785714 
1 1:0.678571 2:0.059524 3:0.065476 5:0.036013001 6:0.014493014 7:0.015026134 
1 1:0.719828 2:0.034483 3:0.081897 5:0.076178194 7:0.018003573 
1 1:0.71 2:0.055 3:0.07 5:0.072026002 6:0.019323019 7:0.018932927 
1 1:0.684615 2:0.046154 3:0.092308 5:0.1090901 7:0.019230768 
1 1:0.786585 2:0.003049 3:0.033537 5:0.007052018 7:0.019649762 
1 1:0.738019 2:0.028754 3:0.044728 5:0.0089156591 6:0.010767011 7:0.01628614 
1 1:0.731898 2:0.035225 3:0.031311 5:0.035983183 7:0.014832226 
1 1:0.769882 2:0.010152 3:0.027073 5:0.021894056 7:0.01405225 
1 1:0.747312 2:0.016129 3:0.053763 5:0.015274403 7:0.015997902 
1 1:0.712598 2:0.035433 3:0.051181 5:0.034514633 6:0.018519019 7:0.015555982 
1 1:0.715909 2:0.0625 3:0.039773 5:0.057675965 6:0.011604012 7:0.017911585 
1 1:0.759674 2:0.02444 3:0.032587 5:0.032226082 7:0.017237098 
1 1:0.783951 2:0.012346 3:0.055556 5:0.014364946 7:0.01953478 
1 1:0.721088 2:0.034014 3:0.102041 5:0.014253127 7:0.021694043 
1 1:0.763245 2:0.02649 3:0.034768 5:0.054701594 7:0.019261829 8:0.023809524 
1 1:0.785924 2:0.008798 3:0.035191 5:0.014983675 7:0.017792006 
1 1:0.64 2:0.113333 3:0.06 5:0.037653005 6:0.083334083 7:0.016097561 
1 1:0.768182 2:0.020455 3:0.036364 5:0.037116276 6:0.0024900025 7:0.016699 
1 1:0.689655 2:0.08046 3:0.022989 5:0.01951605 6:0.062826063 7:0.013386598 
1 1:0.822951 2:0.003279 3:0.036066 5:0.0062916524 7:0.023690524 
1 1:0.782946 2:0.007752 3:0.03876 5:0.019068776 7:0.018481756 
1 1:0.755981 2:0.023923 3:0.043062 5:0.012568396 7:0.017300738 
1 1:0.766404 2:0.015748 3:0.020997 5:0.021715146 7:0.01648422 
1 1:0.785714 2:0.047619 3:0.015873 6:0.027843028 7:0.02085753 
1 1:0.716 2:0.084 3:0.052 5:0.047888122 6:0.028908029 7:0.022780488 
1 1:0.755906 2:0.031496 3:0.070866 5:0.067307262 7:0.021269445 
1 1:0.790244 2:0.014634 3:0.034146 5:0.0089454773 7:0.024776921 
1 1:0.792 2:0.02 3:0.04 5:0.018845139 7:0.048243902 
1 1:0.763578 2:0.009585 3:0.038339 5:0.025971702 7:0.016773165 8:0.023809524 
1 1:0.730769 2:0.030769 3:0.038462 5:0.059010332 7:0.017776738 
1 1:0.723404 2:0.042553 3:0.035461 5:0.067359444 6:0.009036009 7:0.014357378 
1 1:0.781046 2:0.019608 3:0.022876 5:0.0080658387 6:0.0032460032 7:0.018412244 
1 1:0.730496 2:0.035461 3:0.049645 5:0.020037869 7:0.016087183 
1 1:0.742331 2:0.067485 3:0.01227 5:0.03269572 6:0.052632053 7:0.017058207 
1 1:0.748466 2:0.01227 3:0.06135 5:0.015758949 7:0.017694146 
1 1:0.736625 2:0.024691 3:0.037037 5:0.02448079 6:0.0049260049 7:0.015281543 
1 1:0.771357 2:0.017588 3:0.027638 5:0.0065227439 7:0.017511335 
1 1:0.748837 2:0.009302 3:0.060465 5:0.025054791 7:0.016874646 
1 1:0.787402 2:0.007874 3:0.055118 5:0.018450047 7:0.019396963 
1 1:0.765152 2:0.007576 3:0.030303 5:0.021059145 7:0.016352549 
1 1:0.731034 2:0.048276 3:0.034483 5:0.057049782 6:0.015306015 7:0.016484439 
1 1:0.770186 2:0.018634 3:0.062112 5:0.042841382 7:0.019769732 
1 1:0.707692 2:0.030769 3:0.084615 5:0.036721184 7:0.019043152 
1 1:0.770701 2:0.006369 3:0.063694 5:0.014558764 7:0.019885043 
1 1:0.697561 2:0.097561 3:0.039024 5:0.067560717 6:0.036255036 7:0.019690659 
1 1:0.770992 2:0.038168 3:0.045802 5:0.036721184 6:0.014778015 7:0.018897787 
1 1:0.738182 2:0.036364 3:0.047273 5:0.047910486 6:0.0038550039 7:0.017250555 
1 1:0.79021 2:0.013986 3:0.034965 5:0.01840532 7:0.017269317 
1 1:0.637097 2:0.145161 3:0.024194 4:0.0036900369 5:0.059166878 6:0.095238095 7:0.018587726 
1 1:0.753799 2:0.015198 3:0.039514 5:0.035580636 7:0.015531171 
1 1:0.747076 2:0.032164 3:0.04386 5:0.043676293 6:0.0058590059 7:0.018257024 
1 1:0.792929 2:0.017677 3:0.035354 5:0.021715146 7:0.021141293 
1 1:0.727273 2:0.034759 3:0.072193 5:0.057839965 7:0.01891222 
1 1:0.758721 2:0.014535 3:0.037791 5:0.039606101 7:0.016679665 
1 1:0.637681 2:0.149758 3:0.038647 5:0.044973387 6:0.085974086 7:0.019529872 
1 1:0.764471 2:0.015968 3:0.041916 5:0.021163508 7:0.017148628 
1 1:0.741697 2:0.02583 3:0.055351 5:0.018293501 7:0.018337683 
1 1:0.736842 2:0.033493 3:0.023923 5:0.032129173 6:0.012930013 7:0.013537171 
1 1:0.746479 2:0.035211 3:0.035211 6:0.024063024 7:0.016059774 
1 1:0.731392 2:0.029126 3:0.055016 4:0.0036900369 5:0.016489497 6:0.00995701 7:0.017838817 
1 1:0.712121 2:0.034091 3:0.075758 5:0.075626556 7:0.015936805 
1 1:0.731183 2:0.017921 3:0.046595 5:0.02096969 6:0.0084390084 7:0.015538945 
1 1:0.761589 2:0.013245 3:0.039735 5:0.038525189 7:0.015627524 
1 1:0.72619 2:0.035714 3:0.059524 5:0.015863313 7:0.017058652 
1 1:0.737201 2:0.027304 3:0.064846 5:0.056595053 7:0.019187549 
1 1:0.72766 2:0.046809 3:0.059574 4:0.0073800738 5:0.047545212 6:0.0076530077 7:0.0203425 
1 1:0.752809 2:0.031835 3:0.02809 5:0.039233373 6:0.0022560023 7:0.015186811 
1 1:0.731959 2:0.030928 3:0.041237 5:0.043847748 7:0.016029671 
1 1:0.674603 2:0.031746 3:0.095238 5:0.070773635 7:0.015292293 
1 1:0.748344 2:0.006623 3:0.059603 5:0.016824952 7:0.017888872 
1 1:0.759336 2:0.016598 3:0.053942 5:0.028819346 7:0.01963364 
1 1:0.75 2:0.022727 3:0.037879 7:0.014828159 
1 1:0.734375 2:0.015625 3:0.057292 5:0.01634786 7:0.014481707 
1 1:0.640244 2:0.042683 3:0.134146 5:0.05048231 7:0.016470854 
1 1:0.761329 2:0.015106 3:0.036254 5:0.023220968 7:0.017740037 
1 1:0.712329 2:0.068493 3:0.030822 5:0.035289908 6:0.039054039 7:0.017645341 
1 1:0.705314 2:0.057971 3:0.067633 5:0.060121062 7:0.018263226 
1 1:0.700637 2:0.057325 3:0.063694 5:0.017018771 6:0.020547021 7:0.01701103 
1 1:0.704663 2:0.031088 3:0.07772 4:0.0073800738 5:0.042036289 7:0.016807787 
1 1:0.700565 2:0.045198 3:0.056497 5:0.035245181 7:0.01457214 
1 1:0.705882 2:0.051903 3:0.058824 5:0.060657791 6:0.0081360081 7:0.023335305 
1 1:0.763407 2:0.012618 3:0.063091 5:0.0070892908 7:0.020235439 
1 1:0.752907 2:0.020349 3:0.034884 5:0.041551742 7:0.015899744 
1 1:0.789157 2:0.006024 3:0.060241 5:0.012158395 7:0.022516896 
1 1:0.732369 2:0.014467 3:0.065099 5:0.040455921 7:0.016252811 
1 1:0.763514 2:0.013514 3:0.047297 5:0.034037541 7:0.018045488 
1 1:0.767327 2:0.014851 3:0.024752 7:0.015636317 
1 1:0.706493 2:0.077922 3:0.044156 5:0.02472679 6:0.047265047 7:0.019100415 
1 1:0.765568 2:0.014652 3:0.051282 5:0.027991889 7:0.017845976 
1 1:0.726351 2:0.054054 3:0.040541 5:0.055454505 6:0.015939016 7:0.019384476 
1 1:0.724444 2:0.031111 3:0.026667 5:0.031994991 6:0.019314019 7:0.012628726 
1 1:0.751092 2:0.008734 3:0.069869 5:0.010168026 7:0.019517518 
1 1:0.726562 2:0.03125 3:0.070312 5:0.072547821 7:0.01957889 
1 1:0.73183 2:0.052632 3:0.06015 4:0.0073800738 5:0.020902599 6:0.0038250038 7:0.059951707 
1 1:0.785124 2:0.016529 3:0.107438 5:0.0053076499 7:0.070802256 
1 1:0.783784 2:0.040541 3:0.040541 5:0.021566055 6:0.011571012 7:0.021362061 
1 1:0.76873 2:0.009772 3:0.032573 5:0.0095791153 7:0.015452451 
1 1:0.752 2:0.016 3:0.044 5:0.043914839 7:0.016560976 
1 1:0.776699 2:0.014563 3:0.038835 5:0.024048425 7:0.018351884 
1 1:0.75 2:0.023438 3:0.042969 5:0.040023556 7:0.017744854 
1 1:0.745223 2:0.025478 3:0.057325 5:0.046494118 7:0.018681061 
1 1:0.736486 2:0.013514 3:0.047297 5:0.041879743 7:0.01466711 
1 1:0.645669 2:0.165354 3:0.031496 5:0.035580636 6:0.1002391 7:0.020117152 
1 1:0.757519 2:0.037594 3:0.031955 5:0.028096253 6:0.016959017 7:0.018246835 
1 1:0.77757 2:0.009346 3:0.024299 5:0.015803677 7:0.016127195 
1 1:0.730769 2:0.025641 3:0.044872 7:0.014696683 
1 1:0.723881 2:0.05597 3:0.041045 5:0.030593532 6:0.020520021 7:0.01663178 
1 1:0.772182 2:0.009592 3:0.035971 5:0.025636247 7:0.017005909 
1 1:0.776596 2:0.010638 3:0.026596 5:0.015430948 7:0.015665543 
1 1:0.491453 2:0.08547 3:0.175214 5:0.11647757 7:0.020012506 
1 1:0.712737 2:0.03794 3:0.04607 5:0.033098266 7:0.014888622 
1 1:0.691057 2:0.073171 3:0.04065 5:0.023004786 6:0.037038037 7:0.016061866 
1 1:0.775 2:0.0125 3:0.034375 5:0.024361517 7:0.017492378 
1 1:0.756345 2:0.035533 3:0.027919 5:0.018822775 7:0.018385543 
1 1:0.755725 2:0.020356 3:0.053435 5:0.025442428 7:0.018184073 
1 1:0.760331 2:0.033058 3:0.033058 5:0.019463868 6:0.015666016 7:0.019300543 
1 1:0.682692 2:0.033654 3:0.024038 5:0.067307262 7:0.012986634 
1 1:0.717742 2:0.112903 3:0.024194 5:0.062640705 6:0.037815038 7:0.023406768 
1 1:0.77037 2:0.007407 3:0.044444 5:0.019314776 7:0.017434506 
1 1:0.722222 2:0.027778 3:0.055556 7:0.014862805 
1 1:0.729211 2:0.025586 3:0.057569 5:0.073926915 7:0.015731445 
1 1:0.73262 2:0.026738 3:0.032086 5:0.036721184 7:0.013238555 
1 1:0.763359 2:0.022901 3:0.053435 5:0.016601315 7:0.020899274 
1 1:0.755789 2:0.027368 3:0.031579 5:0.023258241 6:0.014040014 7:0.016456994 
1 1:0.766667 2:0.030303 3:0.027273 5:0.029818258 6:0.012000012 7:0.018477457 
1 1:0.711268 2:0.028169 3:0.06338 5:0.038525189 7:0.016618 
1 1:0.748619 2:0.024862 3:0.052486 5:0.040403739 7:0.018646409 
1 1:0.723301 2:0.058252 3:0.082524 5:0.020552234 6:0.0027570028 7:0.064409189 
1 1:0.741935 2:0.032258 3:0.048387 5:0.022318966 7:0.016424073 
1 1:0.795699 2:0.008065 3:0.018817 5:0.0069625632 7:0.017555073 
1 1:0.783401 2:0.012146 3:0.04251 4:0.0036900369 5:0.027544616 7:0.020045421 
1 1:0.726667 2:0.04 3:0.04 7:0.015731707 
1 1:0.734807 2:0.016575 3:0.055249 5:0.028670255 7:0.017517854 
1 1:0.745679 2:0.05679 3:0.02963 5:0.048447214 6:0.024369024 7:0.018533573 
1 1:0.770563 2:0.012987 3:0.021645 5:0.024972791 7:0.015758634 
1 1:0.726115 2:0.012739 3:0.019108 7:0.014137018 
1 1:0.752244 2:0.019749 3:0.057451 5:0.050184128 7:0.01788764 
1 1:0.786555 2:0.010084 3:0.033613 5:0.020567143 7:0.018569378 
1 1:0.778027 2:0.013453 3:0.026906 5:0.018874957 7:0.016200921 
1 1:0.739927 2:0.014652 3:0.043956 6:0.0082080082 7:0.016327171 
1 1:0.647541 2:0.139344 3:0.02459 4:0.0036900369 5:0.057489601 6:0.092544093 7:0.01944222 
1 1:0.736544 2:0.022663 3:0.03966 5:0.043773202 7:0.020590061 
1 1:0.793548 2:0.006452 3:0.045161 5:0.006880563 7:0.021321793 
1 1:0.768595 2:0.041322 3:0.016529 5:0.022520239 6:0.027189027 7:0.016680104 
1 1:0.727723 2:0.029703 3:0.039604 5:0.061351065 7:0.014670372 
1 1:0.746154 2:0.023077 3:0.053846 5:0.051130857 7:0.017096622 
1 1:0.758377 2:0.035273 3:0.024691 4:0.0036900369 5:0.039583737 6:0.010620011 7:0.018228159 
1 1:0.747826 2:0.026087 3:0.06087 5:0.041700833 7:0.018955463 
1 1:0.8 2:0.006897 3:0.034483 5:0.016310587 7:0.019217829 
1 1:0.781923 2:0.012912 3:0.020086 5:0.015699313 7:0.016613012 
1 1:0.749275 2:0.034783 3:0.055072 5:0.050571765 7:0.019538707 
1 1:0.736842 2:0.052632 3:0.048583 5:0.052547225 7:0.024513677 
1 1:0.751938 2:0.007752 3:0.023256 5:0.024518062 7:0.014369445 
1 1:0.776398 2:0.012422 3:0.037267 5:0.032233537 7:0.017516287 
1 1:0.735537 2:0.008264 3:0.057851 5:0.024204971 7:0.015521067 
1 1:0.733766 2:0.032468 3:0.064935 5:0.060053971 6:0.003021003 7:0.019658695 
1 1:0.775281 2:0.005618 3:0.022472 5:0.018450047 7:0.013839409 
1 1:0.733333 2:0.012121 3:0.060606 5:0.017577863 7:0.015668884 
1 1:0.752717 2:0.027174 3:0.038043 5:0.02892371 7:0.01708311 
1 1:0.734783 2:0.06087 3:0.047826 5:0.062491614 6:0.017964018 7:0.022136799 
1 1:0.775591 2:0.015748 3:0.051181 5:0.018159319 7:0.019709043 
1 1:0.746753 2:0.012987 3:0.032468 5:0.016862225 7:0.017500793 
1 1:0.74 2:0.03 3:0.03 5:0.030548805 7:0.014878049 
1 1:0.78344 2:0.008493 3:0.029724 5:0.011651484 7:0.016570866 
1 1:0.737819 2:0.020882 3:0.044084 5:0.012866578 7:0.016396921 
1 1:0.773399 2:0.014778 3:0.039409 5:0.017100771 6:0.0045870046 7:0.01964436 
1 1:0.770642 2:0.013761 3:0.03211 5:0.025270973 7:0.016502573 
1 1:0.763441 2:0.010753 3:0.037634 5:0.015527858 7:0.01573564 
1 1:0.763514 2:0.013514 3:0.047297 5:0.039867011 7:0.015408701 
1 1:0.658228 2:0.037975 3:0.050633 5:0.051197949 7:0.014047543 
1 1:0.767932 2:0.008439 3:0.054852 5:0.019284958 7:0.019887823 
1 1:0.709459 2:0.047297 3:0.054054 5:0.086882948 7:0.017674689 
1 1:0.731928 2:0.036145 3:0.063253 5:0.064511801 7:0.019100793 
1 1:0.684524 2:0.041667 3:0.077381 5:0.072257093 7:0.02246661 
1 1:0.735537 2:0.016529 3:0.057851 5:0.024518062 7:0.015319494 
1 1:0.78389 2:0.007859 3:0.031434 5:0.020999508 7:0.017010878 
1 1:0.779255 2:0.007979 3:0.031915 5:0.023101695 7:0.015697976 
1 1:0.770961 2:0.01636 3:0.026585 5:0.011226574 7:0.016559427 
1 1:0.722222 2:0.031746 3:0.039683 5:0.057049782 7:0.018970189 
1 1:0.762332 2:0.03139 3:0.053812 5:0.042938291 7:0.023734006 
1 1:0.773234 2:0.007435 3:0.018587 5:0.021864237 7:0.015459244 
1 1:0.759819 2:0.013595 3:0.036254 5:0.03268081 7:0.016809744 
1 1:0.729592 2:0.035714 3:0.030612 5:0.050594129 7:0.013750622 
1 1:0.776 2:0.012 3:0.036 5:0.021730055 7:0.016731707 
1 1:0.734694 2:0.040816 3:0.061224 5:0.077326197 7:0.019993366 
1 1:0.774359 2:0.005128 3:0.051282 5:0.013552398 7:0.01719825 
1 1:0.746269 2:0.029851 3:0.039801 5:0.041797743 6:0.011214011 7:0.016229823 
1 1:0.757396 2:0.023669 3:0.029586 7:0.01785972 
1 1:0.716667 2:0.035 3:0.071667 5:0.090416412 7:0.016758128 
1 1:0.721491 2:0.028509 3:0.061404 5:0.053329954 7:0.01682178 
1 1:0.712264 2:0.099057 3:0.023585 5:0.059353242 6:0.052548053 7:0.018062585 
1 1:0.794521 2:0.034247 3:0.027397 5:0.01309767 6:0.015816016 7:0.02376378 
1 1:0.704082 2:0.030612 3:0.081633 5:0.044906296 7:0.017214201 
1 1:0.72549 2:0.027451 3:0.05098 5:0.076849105 7:0.01623625 
1 1:0.726562 2:0.039062 3:0.054688 5:0.077251651 7:0.018387957 
1 1:0.769811 2:0.011321 3:0.045283 5:0.029236802 7:0.01760239 
1 1:0.707006 2:0.050955 3:0.076433 5:0.098519524 7:0.017632439 
1 1:0.735661 2:0.032419 3:0.029925 5:0.0391141 6:0.015741016 7:0.014491213 
1 1:0.738272 2:0.02716 3:0.041975 5:0.042274835 7:0.015928939 
1 1:0.715976 2:0.029586 3:0.059172 7:0.014792896 
1 1:0.752101 2:0.037815 3:0.02521 5:0.043087382 6:0.013005013 7:0.017729043 
1 1:0.731343 2:0.023454 3:0.046908 5:0.043922294 7:0.015445421 
1 1:0.765784 2:0.020367 3:0.038697 5:0.036721184 6:0.0042210042 7:0.017646915 
1 1:0.75945 2:0.010309 3:0.034364 5:0.020820598 7:0.015002933 
1 1:0.704698 2:0.026846 3:0.09396 5:0.017100771 7:0.017842524 
1 1:0.694915 2:0.029661 3:0.059322 5:0.037146095 6:0.004983005 7:0.015553951 
1 1:0.767442 2:0.015504 3:0.062016 5:0.033962996 7:0.020750616 
1 1:0.769759 2:0.013746 3:0.037801 5:0.029236802 7:0.016029671 
1 1:0.749536 2:0.016698 3:0.044527 5:0.020477688 7:0.016471335 
1 1:0.739617 2:0.025559 3:0.063898 5:0.066636351 7:0.017435518 
1 1:0.754587 2:0.029817 3:0.022936 5:0.020552234 6:0.0055140055 7:0.015215933 
1 1:0.821705 2:0.007752 3:0.062016 5:0.0070221997 7:0.050198524 
1 1:0.763485 2:0.016598 3:0.03112 5:0.021528782 6:0.0043320043 7:0.017521 
1 1:0.738462 2:0.015385 3:0.046154 5:0.028506254 7:0.01635397 
1 1:0.789157 2:0.006024 3:0.060241 5:0.012158395 7:0.022516896 
1 1:0.571429 2:0.126984 3:0.15873 5:0.081031115 6:0.016305016 7:0.0356175 
1 1:0.733333 2:0.013333 3:0.044444 5:0.022728967 7:0.017777774 
1 1:0.741483 2:0.032064 3:0.054108 5:0.05536505 7:0.023033872 
1 1:0.755258 2:0.013384 3:0.042065 5:0.010279844 7:0.01690528 
1 1:0.731308 2:0.053738 3:0.049065 5:0.049267216 6:0.023793024 7:0.021555165 
1 1:0.8 2:0.007407 3:0.022222 7:0.019692866 
1 1:0.784211 2:0.015789 3:0.018421 5:0.013843126 7:0.017281774 
1 1:0.755952 2:0.02381 3:0.029762 5:0.037272822 7:0.014518 
1 1:0.66881 2:0.028939 3:0.080386 5:0.04963249 7:0.014724335 8:0.023809524 
1 1:0.746269 2:0.022388 3:0.029851 7:0.015562433 
1 1:0.752988 2:0.01992 3:0.059761 5:0.028454072 7:0.019094354 
1 1:0.69746 2:0.04157 3:0.076212 5:0.097147884 7:0.01620853 
1 1:0.730435 2:0.047826 3:0.065217 5:0.051197949 7:0.019300104 
1 1:0.638889 2:0.161111 3:0.038889 5:0.026769341 6:0.11849112 7:0.018868567 
1 1:0.785965 2:0.003509 3:0.021053 5:0.0099667526 7:0.016003421 
1 1:0.738095 2:0.026786 3:0.026786 5:0.020149688 7:0.013429152 
1 1:0.745161 2:0.041935 3:0.064516 5:0.054932685 6:0.0012990013 7:0.022688829 
1 1:0.772532 2:0.012876 3:0.032189 5:0.028893892 7:0.016879512 
1 1:0.72293 2:0.031847 3:0.066879 5:0.034469906 7:0.016797421 
1 1:0.737885 2:0.022026 3:0.037445 5:0.026672432 7:0.015015579 
1 1:0.748387 2:0.025806 3:0.032258 7:0.017466561 
1 1:0.754522 2:0.023256 3:0.036176 6:0.015411015 7:0.018402976 
1 1:0.745098 2:0.02451 3:0.039216 5:0.029937531 7:0.01488522 
1 1:0.751678 2:0.040268 3:0.033557 5:0.03645282 6:0.014670015 7:0.016737604 
1 1:0.734694 2:0.035714 3:0.081633 5:0.055379959 7:0.02093703 
1 1:0.75 2:0.025 3:0.05 5:0.047179938 7:0.016056909 
1 1:0.705036 2:0.028777 3:0.064748 5:0.066956898 7:0.014651695 
1 1:0.739394 2:0.015152 3:0.051515 5:0.028819346 7:0.014338506 
1 1:0.756322 2:0.011494 3:0.03908 5:0.020805689 7:0.015068683 
1 1:0.733533 2:0.026946 3:0.026946 5:0.050638856 7:0.013436543 
1 1:0.763557 2:0.019523 3:0.02603 5:0.012054031 7:0.016361567 
1 1:0.775 2:0.025 3:0.1 5:0.012993306 7:0.087449183 
1 1:0.734807 2:0.016575 3:0.055249 5:0.028670255 7:0.017517854 
1 1:0.755102 2:0.023324 3:0.055394 5:0.027969526 7:0.018950439 
1 1:0.757098 2:0.015773 3:0.025237 5:0.019441504 7:0.014753402 
1 1:0.780172 2:0.017241 3:0.021552 5:0.012098758 7:0.016190073 
1 1:0.781705 2:0.014553 3:0.04158 5:0.018040046 7:0.020954817 
1 1:0.747126 2:0.051724 3:0.034483 5:0.013932581 6:0.033645034 7:0.01874825 
1 1:0.776596 2:0.010638 3:0.031915 5:0.027559525 7:0.017546707 
1 1:0.760956 2:0.011952 3:0.043825 5:0.030675533 7:0.017709646 
1 1:0.764463 2:0.008264 3:0.057851 5:0.020537325 7:0.018292683 
1 1:0.652068 2:0.07056 3:0.114355 5:0.16876388 7:0.019004805 
1 1:0.675127 2:0.050761 3:0.071066 5:0.092600599 7:0.01494986 
1 1:0.764957 2:0.012821 3:0.055556 5:0.021141145 7:0.027569317 
1 1:0.758621 2:0.013793 3:0.034483 5:0.019068776 7:0.01644239 
1 1:0.770235 2:0.031332 3:0.015666 5:0.028700073 6:0.017325017 7:0.016541427 
1 1:0.775148 2:0.005917 3:0.023669 5:0.017794045 7:0.015117622 
1 1:0.747706 2:0.016055 3:0.052752 5:0.030250622 7:0.017229805 
1 1:0.724907 2:0.033457 3:0.141264 4:0.0036900369 5:0.019881323 7:0.051001902 
1 1:0.705479 2:0.082192 3:0.027397 5:0.029698985 6:0.055776056 7:0.015724189 
1 1:0.674074 2:0.125926 3:0.014815 4:0.0036900369 5:0.051891223 6:0.083526084 7:0.01946703 
1 1:0.751309 2:0.031414 3:0.028796 5:0.03499918 6:0.0056340056 7:0.016999744 
1 1:0.790541 2:0.009009 3:0.036036 5:0.010063662 7:0.020352671 
1 1:0.770035 2:0.020906 3:0.02439 5:0.018755684 6:0.0037740038 7:0.016890457 
1 1:0.758621 2:0.027586 3:0.048276 5:0.047083029 7:0.019974768 
1 1:0.771429 2:0.052381 3:0.028571 5:0.030265532 6:0.024357024 7:0.02145761 
1 1:0.641026 2:0.043956 3:0.076923 4:0.0036900369 5:0.08959641 7:0.018583043 
1 1:0.776536 2:0.005587 3:0.044693 5:0.014528946 7:0.017475134 
1 1:0.7713 2:0.013453 3:0.03139 5:0.025017518 7:0.016296622 
1 1:0.741697 2:0.02583 3:0.055351 5:0.018293501 7:0.018337683 
1 1:0.776053 2:0.015521 3:0.039911 5:0.027186796 7:0.018536043 
1 1:0.755061 2:0.020243 3:0.034413 5:0.017123134 7:0.016120274 
1 1:0.769231 2:0.021978 3:0.027473 5:0.02892371 6:0.0058200058 7:0.017270835 
1 1:0.778626 2:0.015267 3:0.030534 5:0.019985687 7:0.017361756 
1 1:0.74003 2:0.031019 3:0.050222 5:0.045964844 6:0.0030840031 7:0.01752711 
1 1:0.772994 2:0.007828 3:0.027397 5:0.016444769 7:0.016228341 
1 1:0.762195 2:0.02439 3:0.018293 5:0.017212589 7:0.016099049 
1 1:0.706612 2:0.070248 3:0.020661 4:0.0073800738 5:0.034432633 6:0.034641035 7:0.021820195 
1 1:0.759036 2:0.018072 3:0.036145 7:0.015647957 
1 1:0.763636 2:0.010909 3:0.036364 5:0.019463868 7:0.016984482 
1 1:0.763359 2:0.012723 3:0.033079 5:0.03842828 7:0.015049957 
1 1:0.77551 2:0.010204 3:0.022959 5:0.022318966 6:0.002994003 7:0.015586116 
1 1:0.715736 2:0.017766 3:0.083756 5:0.046799755 7:0.017255787 
1 1:0.761658 2:0.031088 3:0.041451 4:0.0036900369 5:0.039032099 7:0.018103122 
1 1:0.75576 2:0.023041 3:0.0553 5:0.031860808 7:0.01972575 
1 1:0.780488 2:0.02439 3:0.060976 5:0.036482638 7:0.022791494 
1 1:0.706004 2:0.062112 3:0.070393 5:0.025509519 6:0.022587023 7:0.018444177 
1 1:0.732456 2:0.037281 3:0.076754 5:0.08471367 7:0.02000428 
1 1:0.773333 2:0.006667 3:0.02 7:0.014634146 
1 1:0.787115 2:0.011204 3:0.036415 5:0.02662025 7:0.019129604 
1 1:0.770186 2:0.024845 3:0.049689 5:0.044198113 7:0.019163762 
1 1:0.737643 2:0.015209 3:0.057034 5:0.036229183 7:0.019080957 
1 1:0.776978 2:0.007194 3:0.035971 5:0.021797146 7:0.015002634 
1 1:0.764706 2:0.032086 3:0.053476 5:0.022222057 6:0.0089430089 7:0.021879482 
1 1:0.570552 2:0.141104 3:0.147239 5:0.10962682 7:0.027981445 8:0.023809524 
1 1:0.762846 2:0.027668 3:0.023715 6:0.017805018 7:0.016244098 
1 1:0.772388 2:0.026119 3:0.037313 5:0.015840949 6:0.0063750064 7:0.02140972 
1 1:0.777251 2:0.028436 3:0.028436 5:0.023258241 6:0.014040014 7:0.018523872 
1 1:0.760933 2:0.014577 3:0.043732 5:0.030243168 7:0.017528262 
1 1:0.802703 2:0.002703 3:0.027027 5:0.0065823804 7:0.018655238 
1 1:0.788079 2:0.006623 3:0.02649 5:0.016750406 7:0.017969634 
1 1:0.704797 2:0.01845 3:0.073801 5:0.05271868 7:0.015907659 
1 1:0.794643 2:0.004464 3:0.053571 5:0.008967841 7:0.02262086 
1 1:0.750685 2:0.021918 3:0.041096 5:0.04450375 7:0.016789177 
1 1:0.793478 2:0.007246 3:0.025362 5:0.0092734782 7:0.017762457 
1 1:0.745679 2:0.05679 3:0.02963 5:0.048447214 6:0.024369024 7:0.018533573 
1 1:0.759259 2:0.023148 3:0.050926 5:0.054015774 7:0.019478317 
1 1:0.753927 2:0.015707 3:0.073298 5:0.020820598 7:0.022857872 
1 1:0.713287 2:0.034965 3:0.041958 5:0.047634667 7:0.013346409 
1 1:0.725806 2:0.008065 3:0.080645 5:0.023444605 7:0.015637293 
1 1:0.752525 2:0.035354 3:0.025253 5:0.043258837 6:0.011604012 7:0.015921409 
1 1:0.721374 2:0.038168 3:0.049618 5:0.028707528 6:0.011553012 7:0.018129768 
1 1:0.763314 2:0.017751 3:0.035503 5:0.034432633 7:0.015622744 
1 1:0.795238 2:0.009524 3:0.028571 5:0.010831482 7:0.019976774 
1 1:0.751515 2:0.030303 3:0.036364 5:0.032770265 7:0.016814488 
1 1:0.768202 2:0.011887 3:0.034175 5:0.015893131 7:0.016997067 
1 1:0.789238 2:0.008969 3:0.035874 5:0.010667482 7:0.019112982 
1 1:0.766143 2:0.013962 3:0.031414 5:0.02010496 7:0.015781299 
1 1:0.747863 2:0.012821 3:0.047009 5:0.038361189 7:0.015191787 
1 1:0.727619 2:0.017143 3:0.032381 5:0.037578459 7:0.018432055 
1 1:0.741379 2:0.028736 3:0.045977 5:0.040366466 7:0.019414073 
1 1:0.738095 2:0.015873 3:0.063492 5:0.021297691 7:0.016937671 
1 1:0.72 2:0.011429 3:0.08 5:0.029639348 7:0.017526134 
1 1:0.782828 2:0.025253 3:0.040404 5:0.026404067 7:0.026084012 
1 1:0.707317 2:0.089431 3:0.01626 4:0.0036900369 5:0.055767596 6:0.052368052 7:0.019879043 
1 1:0.75576 2:0.023041 3:0.050691 5:0.011308574 7:0.018517476 
1 1:0.76259 2:0.014388 3:0.035971 5:0.02070878 7:0.015792244 
1 1:0.779528 2:0.007874 3:0.031496 7:0.017332439 
1 1:0.711111 2:0.037037 3:0.088889 5:0.053889046 7:0.018744354 
1 1:0.726415 2:0.051887 3:0.033019 5:0.027969526 6:0.022515023 7:0.015330189 
1 1:0.75625 2:0.015625 3:0.028125 5:0.0098474796 7:0.014424543 
1 1:0.778125 2:0.015625 3:0.0375 5:0.031219716 7:0.018197409 
1 1:0.797872 2:0.005319 3:0.029255 5:0.012583305 7:0.019217049 
1 1:0.69863 2:0.013699 3:0.089041 5:0.041186468 7:0.01511861 
1 1:0.776978 2:0.014388 3:0.035971 5:0.016459678 7:0.019871909 
1 1:0.732143 2:0.035714 3:0.065476 5:0.060359608 7:0.017929732 
1 1:0.759596 2:0.024242 3:0.028283 5:0.019627868 6:0.003951004 7:0.018711506 
1 1:0.781538 2:0.009231 3:0.049231 5:0.021990965 7:0.019080677 
1 1:0.765957 2:0.018237 3:0.021277 5:0.024600063 6:0.0033000033 7:0.016847061 
1 1:0.792157 2:0.007843 3:0.035294 5:0.018293501 7:0.019488287 
1 1:0.777778 2:0.01897 3:0.02981 5:0.020686416 6:0.0055500056 7:0.017863043 
1 1:0.768519 2:0.018519 3:0.035185 5:0.033642449 7:0.017513549 
1 1:0.745763 2:0.022599 3:0.039548 7:0.016432409 
1 1:0.797386 2:0.006536 3:0.104575 5:0.0094374786 7:0.03148414 
1 1:0.810256 2:0.006838 3:0.020513 5:0.011815485 7:0.019731085 8:0.047619048 
1 1:0.772616 2:0.00978 3:0.02934 5:0.028342254 7:0.015683701 
1 1:0.789474 2:0.015038 3:0.022556 5:0.0091243869 7:0.018728226 
1 1:0.694215 2:0.049587 3:0.082645 5:0.065197621 7:0.017284823 
1 1:0.751332 2:0.01421 3:0.031972 5:0.02720916 7:0.014837762 
1 1:0.796117 2:0.004854 3:0.024272 5:0.012635487 7:0.01746389 
1 1:0.739796 2:0.020408 3:0.045918 7:0.015368341 
1 1:0.761538 2:0.023077 3:0.069231 5:0.048409941 7:0.021669793 
1 1:0.719457 2:0.027149 3:0.036199 5:0.034566815 6:0.0046380046 7:0.017851232 
1 1:0.751908 2:0.019084 3:0.026718 5:0.011159483 7:0.015546451 
1 1:0.809187 2:0.003534 3:0.035336 5:0.0080360205 7:0.019994829 
1 1:0.790179 2:0.008929 3:0.040179 5:0.020939871 7:0.01938153 
1 1:0.727915 2:0.031802 3:0.045936 5:0.018942048 7:0.016956823 
1 1:0.744898 2:0.027211 3:0.047619 5:0.044108658 7:0.017525305 
1 1:0.72549 2:0.026144 3:0.039216 5:0.042118289 7:0.014108079 
1 1:0.631579 2:0.086124 3:0.07177 5:0.062431977 6:0.03015003 7:0.017417433 
1 1:0.777273 2:0.022727 3:0.051515 5:0.034626452 7:0.021877311 
1 1:0.718182 2:0.027273 3:0.045455 5:0.031189898 7:0.013248335 
1 1:0.757732 2:0.010309 3:0.036082 5:0.033277176 7:0.014080963 
1 1:0.696429 2:0.053571 3:0.083333 5:0.053628137 7:0.020180024 
1 1:0.726562 2:0.054688 3:0.046875 5:0.01951605 6:0.031413031 7:0.018197409 
1 1:0.793103 2:0.007663 3:0.049808 5:0.0079018383 7:0.022030652 
1 1:0.637097 2:0.145161 3:0.024194 4:0.0036900369 5:0.059166878 6:0.095238095 7:0.018587726 
1 1:0.713542 2:0.03125 3:0.046875 5:0.034037541 7:0.013910061 
1 1:0.594737 2:0.115789 3:0.031579 5:0.033128084 6:0.10666811 7:0.014441591 
1 1:0.776786 2:0.008929 3:0.040179 5:0.022728967 7:0.01785714 
1 1:0.796226 2:0.018868 3:0.041509 5:0.023198605 6:0.0031110031 7:0.022181317 
1 1:0.802083 2:0.006944 3:0.034722 5:0.014379855 7:0.021955451 
1 1:0.710938 2:0.03125 3:0.054688 5:0.025971702 6:0.01045201 7:0.013671878 
1 1:0.791837 2:0.004082 3:0.028571 5:0.010540754 7:0.017595817 
1 1:0.768293 2:0.020325 3:0.038618 5:0.035304817 7:0.01831747 
1 1:0.696552 2:0.07931 3:0.055172 5:0.090408957 6:0.01984502 7:0.019070646 
1 1:0.762238 2:0.01049 3:0.027972 5:0.021029326 7:0.015115982 
1 1:0.634146 2:0.03252 3:0.130081 5:0.070326361 7:0.015764427 
1 1:0.747811 2:0.022767 3:0.038529 5:0.041126832 6:0.0062070062 7:0.015484177 
1 1:0.750929 2:0.022305 3:0.04461 5:0.041879743 7:0.020174085 
1 1:0.761329 2:0.015106 3:0.036254 5:0.023220968 7:0.017740037 
1 1:0.75188 2:0.022556 3:0.037594 7:0.015358518 
1 1:0.790476 2:0.017143 3:0.019048 5:0.014089127 6:0.0056700057 7:0.018432055 
1 1:0.710744 2:0.033058 3:0.082645 5:0.063714162 7:0.017687963 
1 1:0.774648 2:0.014085 3:0.035211 5:0.020820598 7:0.015372726 
1 1:0.723301 2:0.058252 3:0.082524 5:0.020552234 6:0.0027570028 7:0.064409189 
1 1:0.746114 2:0.025907 3:0.025907 5:0.031122806 7:0.015133323 
1 1:0.767528 2:0.02214 3:0.02214 5:0.010168026 7:0.016492665 
1 1:0.740088 2:0.013216 3:0.057269 5:0.034037541 7:0.017648006 
1 1:0.773723 2:0.014599 3:0.036496 5:0.020477688 7:0.016200817 
1 1:0.76875 2:0.03125 3:0.03125 7:0.01878811 
1 1:0.760331 2:0.016529 3:0.033058 5:0.036810639 7:0.020409189 
1 1:0.710692 2:0.037736 3:0.081761 5:0.098519524 7:0.017410646 
1 1:0.768061 2:0.015209 3:0.019011 5:0.011450211 7:0.015093201 
1 1:0.790698 2:0.011628 3:0.03876 5:0.0084907489 7:0.020750616 
1 1:0.756906 2:0.038674 3:0.027624 5:0.026068612 6:0.015735016 7:0.01926964 
1 1:0.776423 2:0.020325 3:0.028455 5:0.02020187 7:0.018292683 
1 1:0.622144 2:0.110721 3:0.080844 5:0.083304758 6:0.021966022 7:0.027808738 
1 1:0.756906 2:0.016575 3:0.044199 5:0.047276848 7:0.015934512 
1 1:0.769022 2:0.01087 3:0.035326 5:0.022386057 7:0.01655289 
1 1:0.661202 2:0.027322 3:0.087432 4:0.0036900369 5:0.030183531 7:0.016460085 
1 1:0.677419 2:0.048387 3:0.08871 5:0.14358982 7:0.015317665 
1 1:0.75 2:0.012821 3:0.032051 5:0.035498636 7:0.016416512 
1 1:0.661654 2:0.067669 3:0.097744 5:0.091355687 6:0.0073530074 7:0.018705299 
1 1:0.767059 2:0.028235 3:0.042353 5:0.043467565 6:0.0043740044 7:0.01968436 
1 1:0.743304 2:0.020089 3:0.040179 5:0.014305309 7:0.014182274 
1 1:0.808429 2:0.003831 3:0.030651 5:0.0080732933 7:0.021563402 
1 1:0.771208 2:0.015424 3:0.030848 5:0.020671507 7:0.016960311 
1 1:0.796729 2:0.004673 3:0.021028 5:0.011360756 7:0.018691591 
1 1:0.759305 2:0.01737 3:0.029777 5:0.03697464 7:0.01525147 
1 1:0.749035 2:0.030888 3:0.057915 5:0.015550221 6:0.0041730042 7:0.033854415 
1 1:0.757143 2:0.021429 3:0.057143 5:0.017920773 7:0.01811847 
1 1:0.74606 2:0.012259 3:0.033275 4:0.0036900369 5:0.022863149 7:0.017406348 
1 1:0.74375 2:0.0125 3:0.047917 5:0.037779733 7:0.015040652 
1 1:0.775194 2:0.007752 3:0.062016 5:0.015527858 7:0.022688598 
1 1:0.809278 2:0.007732 3:0.036082 5:0.0054716503 7:0.021404323 
1 1:0.751295 2:0.022453 3:0.056995 5:0.055953961 7:0.018240024 
1 1:0.691824 2:0.012579 3:0.113208 5:0.035498636 7:0.016106768 
1 1:0.743671 2:0.031646 3:0.025316 5:0.019359504 6:0.0038970039 7:0.014857982 
1 1:0.792169 2:0.006024 3:0.036145 5:0.0067165626 7:0.020386427 
1 1:0.774536 2:0.013263 3:0.034483 5:0.03080226 7:0.019570421 
1 1:0.753247 2:0.025974 3:0.045455 5:0.015796222 7:0.018688628 
1 1:0.751553 2:0.031056 3:0.043478 5:0.050713402 7:0.016702012 
1 1:0.735537 2:0.008264 3:0.057851 5:0.024204971 7:0.015521067 
1 1:0.763006 2:0.023121 3:0.034682 5:0.030362441 7:0.017305793 
1 1:0.72619 2:0.035714 3:0.029762 5:0.044958478 6:0.0018090018 7:0.01504428 
1 1:0.703125 2:0.03125 3:0.078125 5:0.074545644 7:0.016673018 
1 1:0.736842 2:0.026316 3:0.047368 4:0.0036900369 5:0.045733753 7:0.015693195 
1 1:0.710526 2:0.040936 3:0.064327 5:0.084534761 7:0.01729425 
1 1:0.773438 2:0.015625 3:0.026042 5:0.013149852 6:0.0026460026 7:0.01800686 
1 1:0.721698 2:0.023585 3:0.04717 5:0.016243496 7:0.013201793 
1 1:0.773832 2:0.029907 3:0.020561 5:0.029959894 6:0.016074016 7:0.017016183 
1 1:0.701531 2:0.079082 3:0.066327 5:0.071720364 6:0.0067920068 7:0.027485689 
1 1:0.750877 2:0.035088 3:0.02807 5:0.030511532 6:0.012279012 7:0.0156825 
1 1:0.755 2:0.035 3:0.03 5:0.032785174 6:0.010554011 7:0.017332317 
1 1:0.696 2:0.048 3:0.056 5:0.08352094 7:0.017414634 
1 1:0.732394 2:0.037559 3:0.046948 5:0.038227006 6:0.0051270051 7:0.016746823 
1 1:0.80236 2:0.00295 3:0.035398 5:0.0062767432 7:0.021368445 
1 1:0.674074 2:0.125926 3:0.014815 4:0.0036900369 5:0.051891223 6:0.083526084 7:0.01946703 
1 1:0.79096 2:0.011299 3:0.045198 5:0.012486395 7:0.020566348 
1 1:0.659574 2:0.049645 3:0.095745 5:0.13518853 7:0.016692616 
1 1:0.738589 2:0.03527 3:0.049793 5:0.057183964 6:0.0020910021 7:0.018140878 
1 1:0.706161 2:0.056872 3:0.085308 5:0.020231688 6:0.0027150027 7:0.063894348 
1 1:0.761589 2:0.02649 3:0.059603 5:0.040590103 7:0.022250043 
1 1:0.767123 2:0.020548 3:0.061644 5:0.011524757 7:0.027021384 
1 1:0.705696 2:0.028481 3:0.056962 5:0.042304653 6:0.0068100068 7:0.016999848 
1 1:0.799031 2:0.007264 3:0.038741 7:0.020773049 
1 1:0.766467 2:0.017964 3:0.053892 5:0.029698985 7:0.018329195 
1 1:0.771523 2:0.023179 3:0.033113 5:0.015430948 7:0.019504116 
1 1:0.732484 2:0.025478 3:0.031847 5:0.041648651 7:0.013903994 
1 1:0.768166 2:0.034602 3:0.051903 5:0.041492106 7:0.022744537 
1 1:0.737052 2:0.011952 3:0.067729 5:0.019829141 7:0.027402585 
1 1:0.753968 2:0.02381 3:0.055556 5:0.037183367 7:0.019405732 
1 1:0.767932 2:0.008439 3:0.054852 5:0.019284958 7:0.019887823 
1 1:0.761194 2:0.0199 3:0.029851 5:0.027559525 7:0.016411841 
1 1:0.705479 2:0.054795 3:0.047945 5:0.040075738 6:0.024195024 7:0.01553625 
1 1:0.762295 2:0.028689 3:0.045082 5:0.010264935 6:0.016530017 7:0.018142744 
1 1:0.803738 2:0.009346 3:0.028037 5:0.010324572 7:0.020572146 
1 1:0.722581 2:0.051613 3:0.03871 5:0.069021812 6:0.0069450069 7:0.016994494 
1 1:0.775362 2:0.014493 3:0.021739 5:0.021990965 7:0.014978793 
1 1:0.769424 2:0.02005 3:0.037594 5:0.03088426 7:0.018445506 
1 1:0.755725 2:0.053435 3:0.038168 5:0.050027582 6:0.013422013 7:0.020806183 
1 1:0.745679 2:0.05679 3:0.02963 5:0.048447214 6:0.024369024 7:0.018533573 
1 1:0.78481 2:0.015823 3:0.041139 5:0.022140056 7:0.019489043 
1 1:0.764368 2:0.017241 3:0.051724 5:0.041566651 7:0.018853378 
1 1:0.755973 2:0.013652 3:0.032423 5:0.032315537 7:0.014401067 
1 1:0.707006 2:0.063694 3:0.073248 5:0.067769445 6:0.012120012 7:0.019224793 
1 1:0.716312 2:0.01182 3:0.056738 5:0.033821359 7:0.015885372 
1 1:0.779188 2:0.017766 3:0.048223 5:0.028118617 7:0.028723537 
1 1:0.776224 2:0.020979 3:0.022727 5:0.018181683 6:0.0054870055 7:0.017482518 
1 1:0.789474 2:0.009288 3:0.021672 5:0.015259493 7:0.018443707 
1 1:0.69657 2:0.058047 3:0.044855 5:0.089812592 6:0.009036009 7:0.016024195 
1 1:0.727838 2:0.051322 3:0.076205 5:0.064824892 7:0.022901415 
1 1:0.769953 2:0.00939 3:0.030516 5:0.027507343 7:0.01551586 
1 1:0.707317 2:0.01626 3:0.113821 5:0.040515558 7:0.01824311 
1 1:0.734783 2:0.013043 3:0.03913 5:0.027060069 7:0.014607634 
1 1:0.756303 2:0.014006 3:0.02521 5:0.034864998 7:0.018258524 
1 1:0.805243 2:0.007491 3:0.037453 5:0.016713133 7:0.020370878 
1 1:0.775591 2:0.007874 3:0.031496 5:0.020067687 7:0.017836567 
1 1:0.771429 2:0.022857 3:0.034286 5:0.030675533 7:0.016933799 
1 1:0.656126 2:0.075099 3:0.051383 5:0.12187467 6:0.012261012 7:0.017690159 
1 1:0.739496 2:0.026891 3:0.045378 5:0.018278592 7:0.016714488 
1 1:0.780405 2:0.010135 3:0.02027 5:0.019113503 7:0.016067896 
1 1:0.74552 2:0.035842 3:0.039427 5:0.048976488 7:0.016631701 
1 1:0.724349 2:0.030628 3:0.047473 5:0.031994991 7:0.015229896 
1 1:0.769231 2:0.013986 3:0.027972 5:0.020149688 7:0.015776909 
1 1:0.768889 2:0.013333 3:0.055556 5:0.029915167 7:0.020257451 
1 1:0.713235 2:0.036765 3:0.036765 5:0.025442428 7:0.013136659 
1 1:0.789969 2:0.017241 3:0.029781 5:0.014596037 6:0.0058740059 7:0.019525573 
1 1:0.736508 2:0.028571 3:0.038095 5:0.038778644 6:0.0078030078 7:0.014885793 
1 1:0.758278 2:0.023179 3:0.029801 5:0.016586406 6:0.0033360033 7:0.018151348 
1 1:0.730769 2:0.038462 3:0.072115 5:0.040515558 7:0.021575982 
1 1:0.793413 2:0.008982 3:0.02994 5:0.013291488 7:0.020483427 
1 1:0.786517 2:0.018727 3:0.024345 5:0.013753671 6:0.0073800074 7:0.018566732 
1 1:0.783784 2:0.016216 3:0.054054 5:0.016586406 7:0.029630848 
1 1:0.756545 2:0.04712 3:0.036649 5:0.03790646 6:0.012711013 7:0.018835396 
1 1:0.745679 2:0.05679 3:0.02963 5:0.048447214 6:0.024369024 7:0.018533573 
1 1:0.792373 2:0.025424 3:0.033898 5:0.0090125684 6:0.0072540073 7:0.021367299 
1 1:0.740047 2:0.023419 3:0.030445 5:0.022117693 7:0.014437085 
1 1:0.779685 2:0.007153 3:0.032904 5:0.019434049 7:0.01673122 
1 1:0.753086 2:0.018519 3:0.055556 5:0.034432633 7:0.016297799 
1 1:0.769939 2:0.030675 3:0.021472 5:0.026031339 6:0.017463017 7:0.016066884 
1 1:0.787879 2:0.007576 3:0.037879 5:0.018271137 7:0.018847006 
1 1:0.748201 2:0.02518 3:0.035971 5:0.043281201 7:0.015112299 
1 1:0.71746 2:0.025397 3:0.038095 5:0.042655018 7:0.01353078 
1 1:0.71134 2:0.051546 3:0.034364 5:0.047888122 6:0.0096360096 7:0.019570866 
1 1:0.790741 2:0.011111 3:0.031481 5:0.012449123 7:0.020280037 
1 1:0.755906 2:0.015748 3:0.03937 5:0.025352974 7:0.014115616 
1 1:0.691824 2:0.113208 3:0.018868 5:0.032621174 6:0.078774079 7:0.017525695 
1 1:0.748148 2:0.022222 3:0.066667 5:0.036810639 7:0.018292683 
1 1:0.769953 2:0.032864 3:0.028169 5:0.012046576 6:0.019386019 7:0.01772014 
1 1:0.755102 2:0.013605 3:0.027211 5:0.037369731 7:0.016550524 
1 1:0.764591 2:0.007782 3:0.025292 5:0.012605668 7:0.014033878 
1 1:0.737705 2:0.010929 3:0.065574 7:0.016393439 
1 1:0.770115 2:0.005747 3:0.04023 5:0.016787679 7:0.015559293 
1 1:0.69788 2:0.083039 3:0.035336 5:0.033538085 6:0.046272046 7:0.016762909 
1 1:0.781421 2:0.005464 3:0.032787 5:0.015341494 7:0.016193524 
1 1:0.72973 2:0.015015 3:0.045045 5:0.041126832 7:0.01327547 
1 1:0.748905 2:0.026277 3:0.027737 5:0.035431545 7:0.014981305 
1 1:0.799065 2:0.023364 3:0.014019 6:0.0085350085 7:0.020030774 
1 1:0.81 2:0.005 3:0.03 5:0.010913482 7:0.020823171 
1 1:0.761029 2:0.014706 3:0.033088 5:0.030593532 7:0.016387195 
1 1:0.75 2:0.02 3:0.065 5:0.024048425 7:0.018902439 
1 1:0.774194 2:0.008065 3:0.032258 5:0.022937695 7:0.015981512 
1 1:0.688995 2:0.028708 3:0.119617 4:0.022140221 5:0.050780493 7:0.021414402 
1 1:0.775281 2:0.005618 3:0.022472 5:0.018450047 7:0.013839409 
1 1:0.789157 2:0.024096 3:0.060241 5:0.021774783 7:0.037724067 
1 1:0.758065 2:0.024194 3:0.028226 5:0.034887362 7:0.015760226 
1 1:0.750636 2:0.025445 3:0.048346 5:0.053344863 7:0.017346244 
1 1:0.73224 2:0.021858 3:0.071038 5:0.015088038 7:0.016460085 
1 1:0.788119 2:0.00396 3:0.041584 5:0.0092287508 7:0.019512195 
1 1:0.773389 2:0.022869 3:0.033264 5:0.023742788 6:0.0076440076 7:0.01990264 
1 1:0.777397 2:0.020548 3:0.034247 5:0.024413699 7:0.019127963 
1 1:0.733871 2:0.072581 3:0.016129 5:0.020537325 6:0.04958705 7:0.017850116 
1 1:0.757576 2:0.016162 3:0.030303 5:0.010906028 6:0.0087780088 7:0.016839122 
1 1:0.72093 2:0.015504 3:0.077519 5:0.023593696 7:0.014936659 
1 1:0.755102 2:0.013605 3:0.027211 5:0.037369731 7:0.016550524 
1 1:0.765957 2:0.021277 3:0.055319 5:0.01909114 7:0.020264659 
1 1:0.747253 2:0.025641 3:0.032967 5:0.028632982 7:0.017443939 
1 1:0.765027 2:0.010929 3:0.043716 4:0.0036900369 5:0.013477852 7:0.018425963 
1 1:0.770833 2:0.034722 3:0.0625 5:0.03909919 7:0.024220866 
1 1:0.793249 2:0.016878 3:0.042194 5:0.026657522 7:0.021585878 
1 1:0.727273 2:0.019481 3:0.071429 5:0.04937158 7:0.017936329 
1 1:0.692833 2:0.075085 3:0.054608 5:0.064027254 6:0.033129033 7:0.016960793 
1 1:0.748252 2:0.027972 3:0.062937 5:0.05237577 7:0.018207402 
1 1:0.75 2:0.016667 3:0.041667 5:0.019985687 7:0.01895325 
1 1:0.735661 2:0.032419 3:0.029925 5:0.0391141 6:0.015741016 7:0.014491213 
1 1:0.803279 2:0.008197 3:0.032787 7:0.021141543 
1 1:0.760479 2:0.017964 3:0.02994 5:0.025882248 7:0.02103111 
1 1:0.730077 2:0.028278 3:0.046272 5:0.039233373 7:0.014891213 
1 1:0.704348 2:0.049275 3:0.057971 5:0.087889315 7:0.016489927 
1 1:0.718518 2:0.074074 3:0.051852 5:0.032837356 6:0.036345036 7:0.020505872 
1 1:0.772532 2:0.010014 3:0.027182 5:0.024518062 7:0.015911232 
1 1:0.792517 2:0.003401 3:0.034014 5:0.0081329298 7:0.019018585 
1 1:0.736181 2:0.017588 3:0.032663 5:0.032591356 7:0.014018262 
1 1:0.788151 2:0.021544 3:0.035907 5:0.011427847 6:0.0091980092 7:0.021423567 
1 1:0.7375 2:0.01875 3:0.03125 7:0.01257622 
1 1:0.695364 2:0.036424 3:0.076159 5:0.025181519 7:0.01792925 
1 1:0.746939 2:0.032653 3:0.053061 5:0.0098474796 6:0.0079260079 7:0.01884022 
1 1:0.740157 2:0.019685 3:0.066929 5:0.019642777 7:0.018220665 
1 1:0.75266 2:0.023936 3:0.037234 5:0.048409941 6:0.0064950065 7:0.014984433 
1 1:0.791139 2:0.009494 3:0.028481 5:0.016362769 7:0.017578726 
1 1:0.760391 2:0.01956 3:0.04401 5:0.045771026 7:0.016995646 
1 1:0.778196 2:0.011278 3:0.030075 5:0.021357327 7:0.016000366 
1 1:0.756614 2:0.026455 3:0.021164 5:0.015088038 7:0.015937543 
1 1:0.723301 2:0.058252 3:0.082524 5:0.020552234 6:0.0027570028 7:0.064409189 
1 1:0.800654 2:0.006536 3:0.03268 5:0.013433125 7:0.022118604 
1 1:0.791304 2:0.012174 3:0.031304 5:0.019888778 6:0.0016020016 7:0.019872744 
1 1:0.712446 2:0.015021 3:0.034335 5:0.026456249 7:0.018436616 
1 1:0.697987 2:0.026846 3:0.100671 5:0.014819674 7:0.020584384 
1 1:0.763043 2:0.021739 3:0.036957 5:0.035438999 7:0.016728524 
1 1:0.766423 2:0.007299 3:0.021898 5:0.025181519 7:0.013174293 
1 1:0.736573 2:0.035806 3:0.066496 5:0.065391439 7:0.01955586 
1 1:0.731872 2:0.01855 3:0.055649 5:0.054053047 7:0.015598652 
1 1:0.69802 2:0.094059 3:0.049505 5:0.094576059 6:0.01038001 7:0.026171213 
1 1:0.784314 2:0.011765 3:0.031373 5:0.020537325 7:0.017360116 
1 1:0.779703 2:0.019802 3:0.024752 5:0.0061872885 6:0.0074700075 7:0.01818703 
1 1:0.73494 2:0.012048 3:0.084337 5:0.029288984 7:0.018696738 
1 1:0.761603 2:0.018987 3:0.048523 5:0.010168026 6:0.01023301 7:0.018858701 
1 1:0.726619 2:0.014388 3:0.05036 5:0.043594293 7:0.015002634 
1 1:0.787645 2:0.011583 3:0.030888 5:0.02028387 7:0.01730389 
1 1:0.784343 2:0.007386 3:0.025111 5:0.012277668 7:0.016410274 
1 1:0.75 2:0.030488 3:0.036585 5:0.034753179 7:0.015950329 
1 1:0.716763 2:0.040462 3:0.052023 5:0.048827397 7:0.016142677 
1 1:0.796526 2:0.007444 3:0.027295 5:0.012553486 7:0.017974945 
1 1:0.73224 2:0.010929 3:0.027322 4:0.018450185 5:0.025315701 7:0.019625482 
1 1:0.783333 2:0.008333 3:0.033333 5:0.023004786 7:0.016463415 
1 1:0.785714 2:0.047619 3:0.015873 6:0.027843028 7:0.02085753 
1 1:0.75853 2:0.034121 3:0.026247 5:0.035603 6:0.017193017 7:0.016756287 
1 1:0.740132 2:0.042763 3:0.039474 5:0.041275923 6:0.013290013 7:0.018112165 
1 1:0.778524 2:0.006711 3:0.033557 5:0.016944225 7:0.01800622 
1 1:0.752475 2:0.019802 3:0.05198 5:0.051995587 7:0.01731164 
1 1:0.777778 2:0.012821 3:0.034188 5:0.020910053 7:0.018579323 
1 1:0.6875 2:0.09375 3:0.05 5:0.079987476 6:0.045063045 7:0.017759146 
1 1:0.738255 2:0.03132 3:0.06264 5:0.05938306 7:0.022262238 
1 1:0.74359 2:0.032967 3:0.047619 5:0.058622695 7:0.017041902 
1 1:0.757974 2:0.020638 3:0.033771 5:0.039382464 7:0.015158104 
1 1:0.782274 2:0.015414 3:0.025048 5:0.015416039 6:0.0020670021 7:0.017047323 
1 1:0.744589 2:0.021645 3:0.038961 5:0.027358251 7:0.014386018 
1 1:0.720588 2:0.022059 3:0.044118 4:0.0036900369 5:0.020537325 7:0.01627511 
1 1:0.75265 2:0.024735 3:0.045936 5:0.039389918 7:0.016310439 
1 1:0.741135 2:0.021277 3:0.046099 5:0.010384208 7:0.015524994 
1 1:0.755952 2:0.017857 3:0.047619 5:0.045361025 7:0.017893439 
1 1:0.77937 2:0.011461 3:0.034384 5:0.014253127 7:0.018275213 
1 1:0.719626 2:0.031153 3:0.049844 5:0.058466149 7:0.014531573 
1 1:0.8 2:0.011321 3:0.022642 5:0.0043311019 7:0.019788311 
1 1:0.680851 2:0.120567 3:0.028369 5:0.090468594 6:0.072816073 7:0.017816988 
1 1:0.705882 2:0.039216 3:0.05098 5:0.059718516 6:0.004005004 7:0.017910091 
1 1:0.738998 2:0.033384 3:0.034901 5:0.012083849 6:0.021069021 7:0.017126835 
1 1:0.7713 2:0.017937 3:0.044843 5:0.033329358 7:0.018347372 
1 1:0.774809 2:0.015267 3:0.038168 5:0.019985687 7:0.017361756 
1 1:0.756579 2:0.023026 3:0.029605 5:0.0180475 7:0.016567713 
1 1:0.658824 2:0.078431 3:0.058824 5:0.0061201974 6:0.012321012 7:0.058225732 
1 1:0.728137 2:0.028517 3:0.047529 5:0.034454997 7:0.020066305 
1 1:0.778004 2:0.01222 3:0.026477 5:0.021670419 7:0.017088073 
1 1:0.696581 2:0.055556 3:0.047009 4:0.0036900369 5:0.077147287 6:0.011643012 7:0.020142799 
1 1:0.798781 2:0.02439 3:0.030488 5:0.014335127 6:0.011538012 7:0.019333732 
1 1:0.732143 2:0.03125 3:0.053571 5:0.0069551086 6:0.0027990028 7:0.029181183 
1 1:0.703297 2:0.065934 3:0.104396 5:0.044488841 7:0.050522646 
1 1:0.781116 2:0.012876 3:0.042918 5:0.030593532 7:0.019130116 
1 1:0.779006 2:0.027624 3:0.022099 5:0.015028402 6:0.012096012 7:0.016709335 
1 1:0.789941 2:0.011834 3:0.047337 5:0.025658611 7:0.020962622 
1 1:0.730483 2:0.035316 3:0.04461 5:0.035476272 6:0.0071400071 7:0.019052043 
1 1:0.751553 2:0.024845 3:0.043478 5:0.050258673 7:0.016853506 
1 1:0.723301 2:0.058252 3:0.082524 5:0.020552234 6:0.0027570028 7:0.064409189 
1 1:0.777439 2:0.015244 3:0.039634 5:0.023370059 7:0.01779075 
1 1:0.715686 2:0.019608 3:0.03268 4:0.0036900369 5:0.052569588 7:0.014128006 
1 1:0.781784 2:0.01518 3:0.037951 5:0.027440252 7:0.018859628 
1 1:0.528846 2:0.067308 3:0.105769 4:0.0036900369 5:0.11749884 7:0.016738976 
1 1:0.753555 2:0.009479 3:0.061611 5:0.02456279 7:0.017541323 
1 1:0.738806 2:0.044776 3:0.052239 5:0.060851609 7:0.022297049 
1 1:0.772401 2:0.017921 3:0.03405 5:0.022743876 7:0.01791022 
1 1:0.758209 2:0.01194 3:0.020896 5:0.0097431157 7:0.01392428 
1 1:0.710227 2:0.028409 3:0.045455 5:0.053889046 7:0.014377774 
1 1:0.772425 2:0.019934 3:0.0299 5:0.025211337 7:0.017968561 
1 1:0.781885 2:0.009242 3:0.048059 5:0.020611871 7:0.020377799 
1 1:0.750877 2:0.026316 3:0.02807 5:0.037011912 7:0.015083439 
1 1:0.780612 2:0.02551 3:0.02551 5:0.0106973 7:0.021683677 
1 1:0.70892 2:0.056338 3:0.084507 5:0.01959805 6:0.0026280026 7:0.065326921 
1 1:0.747788 2:0.017699 3:0.053097 5:0.043594293 7:0.016147744 
1 1:0.738983 2:0.030508 3:0.057627 5:0.045361025 6:0.0060840061 7:0.020380323 
1 1:0.769737 2:0.006579 3:0.032895 5:0.019210413 7:0.015564829 
1 1:0.785185 2:0.02963 3:0.014815 5:0.019016594 6:0.015306015 7:0.017705512 
1 1:0.7713 2:0.013453 3:0.029148 5:0.017861136 6:0.0047910048 7:0.017116921 
1 1:0.817391 2:0.004348 3:0.021739 7:0.019485683 
1 1:0.761589 2:0.014901 3:0.029801 5:0.034417724 7:0.015304476 
1 1:0.789474 2:0.007519 3:0.037594 7:0.018751146 
1 1:0.796804 2:0.03653 3:0.022831 5:0.013917672 6:0.014934015 7:0.022371646 
1 1:0.617801 2:0.08377 3:0.068063 4:0.0036900369 5:0.0055238322 6:0.0027780028 7:0.17235985 
1 1:0.758475 2:0.012712 3:0.033898 5:0.038159915 7:0.015140555 
1 1:0.737931 2:0.029885 3:0.052874 5:0.059256333 7:0.017633866 
1 1:0.775862 2:0.010345 3:0.044828 5:0.026590431 7:0.017682927 
1 1:0.742991 2:0.051402 3:0.051402 5:0.050437583 6:0.0081180081 7:0.02105653 
1 1:0.74184 2:0.038576 3:0.035608 5:0.024331698 6:0.016323016 7:0.016628067 
1 1:0.786026 2:0.008734 3:0.030568 7:0.016908085 
1 1:0.748428 2:0.018868 3:0.044025 7:0.016183463 
1 1:0.775915 2:0.015244 3:0.035061 5:0.02626243 7:0.018469287 
1 1:0.682927 2:0.04878 3:0.065041 5:0.10353645 7:0.014277213 
1 1:0.792017 2:0.008403 3:0.035714 5:0.0097282066 6:0.001959002 7:0.019624927 
1 1:0.701149 2:0.049808 3:0.049808 4:0.0036900369 5:0.087702951 6:0.0078420078 7:0.017872165 
1 1:0.751938 2:0.015504 3:0.041344 5:0.045085206 7:0.015629927 
1 1:0.706522 2:0.016304 3:0.081522 5:0.015341494 7:0.016105512 
1 1:0.763052 2:0.012048 3:0.024096 5:0.021826965 7:0.016725439 
1 1:0.637097 2:0.153226 3:0.024194 4:0.0036900369 5:0.054284138 6:0.1019431 7:0.02025964 
1 1:0.728873 2:0.035211 3:0.042254 5:0.029542439 7:0.016253006 
1 1:0.766667 2:0.02 3:0.02 5:0.02036587 7:0.014878049 
1 1:0.780576 2:0.007194 3:0.061151 5:0.015102948 7:0.021648537 
1 1:0.719486 2:0.03212 3:0.03212 5:0.061231792 7:0.012717396 
1 1:0.768817 2:0.021505 3:0.037634 5:0.027455161 7:0.017800945 
1 1:0.742515 2:0.017964 3:0.047904 5:0.035580636 7:0.015298671 
1 1:0.746544 2:0.02765 3:0.046083 5:0.036900094 7:0.017028213 
1 1:0.705882 2:0.051903 3:0.058824 5:0.060657791 6:0.0081360081 7:0.023335305 
1 1:0.705215 2:0.038549 3:0.043084 5:0.081500753 6:0.0021870022 7:0.018970189 
1 1:0.728 2:0.04 3:0.04 5:0.06041179 7:0.01504878 
1 1:0.674603 2:0.031746 3:0.095238 5:0.070773635 7:0.015292293 
1 1:0.759336 2:0.016598 3:0.053942 5:0.028819346 7:0.01963364 
1 1:0.753994 2:0.019169 3:0.027157 5:0.024898245 7:0.014581549 
1 1:0.792157 2:0.003922 3:0.027451 5:0.0099667526 7:0.017886177 
1 1:0.736842 2:0.033493 3:0.023923 5:0.032129173 6:0.012930013 7:0.013537171 
1 1:0.74321 2:0.019753 3:0.051852 5:0.048007395 7:0.016365555 
1 1:0.744565 2:0.027174 3:0.021739 5:0.03516318 7:0.014050902 
1 1:0.751073 2:0.030043 3:0.030043 5:0.02448079 7:0.015937402 
1 1:0.708333 2:0.016667 3:0.083333 5:0.04809685 7:0.01575203 
1 1:0.790607 2:0.011742 3:0.029354 5:0.018330774 7:0.019414348 
1 1:0.775641 2:0.032051 3:0.012821 5:0.018181683 6:0.021951022 7:0.01602564 
1 1:0.737271 2:0.052953 3:0.075356 5:0.066874897 7:0.02630272 
1 1:0.777311 2:0.008403 3:0.021008 5:0.011524757 7:0.016576146 
1 1:0.731183 2:0.048387 3:0.080645 5:0.063714162 7:0.023013378 
1 1:0.773399 2:0.014778 3:0.039409 5:0.017100771 6:0.0045870046 7:0.01964436 
1 1:0.779874 2:0.018868 3:0.050314 5:0.029288984 7:0.019519866 
1 1:0.75475 2:0.018998 3:0.051813 5:0.020127324 7:0.019503768 
1 1:0.739884 2:0.034682 3:0.023121 5:0.05262177 7:0.014979555 8:0.023809524 
1 1:0.744108 2:0.030303 3:0.040404 5:0.028021708 7:0.016383348 
1 1:0.637097 2:0.145161 3:0.024194 4:0.0036900369 5:0.058853786 6:0.094737095 7:0.018686073 
1 1:0.779221 2:0.006494 3:0.032468 5:0.018591684 7:0.015877415 
1 1:0.740741 2:0.037037 3:0.050926 5:0.047925395 6:0.0042870043 7:0.019760616 
1 1:0.792793 2:0.022523 3:0.018018 5:0.010928391 6:0.013197013 7:0.018732146 
1 1:0.748201 2:0.010791 3:0.028777 5:0.022624603 7:0.014454293 
1 1:0.810526 2:0.005263 3:0.036842 7:0.02166239 
1 1:0.730769 2:0.030769 3:0.038462 5:0.059010332 7:0.017776738 
1 1:0.769882 2:0.010152 3:0.027073 5:0.021894056 7:0.01405225 
1 1:0.767391 2:0.019565 3:0.03913 5:0.037168458 7:0.018610817 
1 1:0.735376 2:0.02507 3:0.047354 5:0.059435242 7:0.014912701 
1 1:0.727455 2:0.042084 3:0.03006 5:0.041715743 6:0.019185019 7:0.015286671 
1 1:0.706977 2:0.04186 3:0.051163 4:0.0036900369 5:0.030183531 6:0.012147012 7:0.014010207 
1 1:0.765464 2:0.015464 3:0.043814 5:0.013515125 6:0.0054390054 7:0.017334043 
1 1:0.787004 2:0.018051 3:0.036101 5:0.00787202 6:0.0095040095 7:0.020846171 
1 1:0.752322 2:0.02322 3:0.0387 5:0.029482802 7:0.016706939 
1 1:0.708108 2:0.048649 3:0.043243 5:0.05048231 7:0.014601189 
1 1:0.770308 2:0.016807 3:0.042017 5:0.025181519 7:0.020222726 
1 1:0.746269 2:0.0199 3:0.044776 5:0.028133526 7:0.016078146 
1 1:0.769784 2:0.014388 3:0.05036 5:0.034753179 7:0.018819091 
1 1:0.753582 2:0.028653 3:0.022923 5:0.032949175 6:0.016575017 7:0.015811726 
1 1:0.699346 2:0.039216 3:0.052288 5:0.023295514 7:0.012753067 
1 1:0.758893 2:0.01581 3:0.039526 5:0.023817333 7:0.015087244 
1 1:0.715385 2:0.092308 3:0.034615 5:0.043288656 6:0.041811042 7:0.020192305 
1 1:0.786458 2:0.015625 3:0.057292 5:0.011360756 7:0.020833335 
1 1:0.727273 2:0.025 3:0.054545 5:0.024622426 7:0.016782152 
1 1:0.766807 2:0.014706 3:0.058824 5:0.032248446 7:0.020726585 
1 1:0.745679 2:0.05679 3:0.02963 5:0.048447214 6:0.024369024 7:0.018533573 
1 1:0.697561 2:0.097561 3:0.039024 5:0.067560717 6:0.036255036 7:0.019690659 
1 1:0.744597 2:0.086444 3:0.043222 5:0.010667482 6:0.037215037 7:0.025109012 
1 1:0.764317 2:0.015419 3:0.039648 5:0.034454997 7:0.017433116 
1 1:0.793333 2:0.006667 3:0.046667 7:0.020528457 
1 1:0.804124 2:0.006873 3:0.041237 5:0.0069551086 7:0.022462494 
1 1:0.782946 2:0.015504 3:0.027132 5:0.018845139 7:0.018694463 
1 1:0.772964 2:0.017331 3:0.024263 5:0.01411149 7:0.016749799 
1 1:0.8 2:0.011321 3:0.022642 5:0.0043311019 7:0.019788311 
1 1:0.768971 2:0.028668 3:0.037099 5:0.028103708 6:0.0096930097 7:0.019094726 
1 1:0.788419 2:0.006682 3:0.057906 5:0.014618401 7:0.020777878 
1 1:0.77027 2:0.02027 3:0.040541 5:0.035327181 7:0.017386287 
1 1:0.745763 2:0.033898 3:0.033898 5:0.029236802 6:0.011766012 7:0.019765396 
1 1:0.623377 2:0.097403 3:0.071429 4:0.0073800738 5:0.15438403 7:0.026765915 
1 1:0.78501 2:0.011834 3:0.031558 5:0.019985687 7:0.017943909 
1 1:0.773438 2:0.013021 3:0.03125 5:0.028975892 7:0.016339561 
1 1:0.737395 2:0.035714 3:0.035714 5:0.05237577 6:0.0046830047 7:0.01640961 
1 1:0.762887 2:0.015464 3:0.030928 7:0.015338195 
1 1:0.738806 2:0.022388 3:0.08209 5:0.035752091 7:0.018975244 
1 1:0.740741 2:0.061728 3:0.020576 5:0.010018935 6:0.04032304 7:0.018669073 
1 1:0.741935 2:0.021505 3:0.064516 5:0.042192835 7:0.017374768 
1 1:0.7552 2:0.0208 3:0.016 5:0.025338064 7:0.01435122 
1 1:0.69802 2:0.034653 3:0.049505 5:0.03011644 6:0.0060600061 7:0.014942043 
1 1:0.779141 2:0.018405 3:0.03681 7:0.019040848 
1 1:0.777143 2:0.011429 3:0.048571 5:0.018874957 7:0.020644598 
1 1:0.755556 2:0.014815 3:0.037037 5:0.043594293 7:0.015447152 
1 1:0.723301 2:0.058252 3:0.082524 5:0.020552234 6:0.0027570028 7:0.064409189 
1 1:0.740741 2:0.030864 3:0.030864 5:0.054217047 6:0.0072720073 7:0.015526195 
1 1:0.753577 2:0.020668 3:0.022258 5:0.019657686 7:0.014705884 
1 1:0.77821 2:0.011673 3:0.035019 5:0.0098474796 7:0.017960518 
1 1:0.725664 2:0.022124 3:0.035398 5:0.028454072 7:0.014137707 
1 1:0.742857 2:0.028571 3:0.044898 5:0.046449391 7:0.015978098 
1 1:0.798611 2:0.006944 3:0.020833 7:0.017445799 
1 1:0.785311 2:0.014124 3:0.025424 5:0.014968765 6:0.006024006 7:0.017155848 
1 1:0.585987 2:0.101911 3:0.127389 5:0.022072965 6:0.0012690013 7:0.091812951 
1 1:0.647934 2:0.12562 3:0.041322 5:0.067881264 6:0.078543079 7:0.017708122 
1 1:0.783259 2:0.005979 3:0.028401 5:0.008043475 7:0.016889061 
1 1:0.768456 2:0.006711 3:0.050336 5:0.016623679 7:0.018354067 
1 1:0.764992 2:0.019449 3:0.035656 5:0.020291324 6:0.0048990049 7:0.018154323 
1 1:0.787736 2:0.018868 3:0.033019 5:0.010600391 6:0.0042660043 7:0.020219744 
1 1:0.770073 2:0.010949 3:0.032847 5:0.03080226 7:0.016156311 
1 1:0.757962 2:0.015924 3:0.038217 5:0.045845571 7:0.015787634 
1 1:0.782178 2:0.016502 3:0.031353 5:0.024778972 7:0.018161878 
1 1:0.530612 2:0.244898 3:0.047619 4:0.0036900369 5:0.052867771 6:0.15602716 7:0.017546043 
1 1:0.781915 2:0.015957 3:0.047872 5:0.023116604 7:0.020919823 
1 1:0.736842 2:0.02807 3:0.052632 5:0.028968437 7:0.016516902 
1 1:0.729323 2:0.022556 3:0.06015 5:0.040843559 7:0.016733909 
1 1:0.751656 2:0.019868 3:0.02649 5:0.021387145 7:0.014072848 
1 1:0.747475 2:0.015152 3:0.040404 5:0.01505822 7:0.015243902 
1 1:0.76431 2:0.023569 3:0.043771 5:0.042215198 7:0.018128439 
1 1:0.760722 2:0.024831 3:0.042889 5:0.033403903 6:0.0022410022 7:0.018430323 
1 1:0.71223 2:0.028777 3:0.05036 7:0.013291805 
1 1:0.753846 2:0.007692 3:0.053846 5:0.024204971 7:0.01444653 
1 1:0.79021 2:0.006993 3:0.041958 5:0.0075962012 7:0.020915061 
1 1:0.781395 2:0.013953 3:0.04186 5:0.02258733 7:0.018718091 
1 1:0.737881 2:0.039497 3:0.028725 5:0.048119213 6:0.0035220035 7:0.018653939 
1 1:0.770701 2:0.006369 3:0.063694 5:0.014558764 7:0.019885043 
1 1:0.708487 2:0.066421 3:0.02583 5:0.068030355 6:0.01955702 7:0.017257671 
1 1:0.739437 2:0.035211 3:0.049296 5:0.065175257 6:0.0032790033 7:0.019645311 
1 1:0.735185 2:0.024074 3:0.031481 5:0.03885319 6:0.0022350022 7:0.01516486 
1 1:0.785366 2:0.014634 3:0.034146 5:0.025315701 7:0.017519335 
1 1:0.729614 2:0.038627 3:0.042918 5:0.022796058 6:0.0091740092 7:0.017115043 
1 1:0.743945 2:0.027682 3:0.051903 5:0.035796818 7:0.017575323 
1 1:0.762295 2:0.028689 3:0.045082 5:0.010264935 6:0.016530017 7:0.018142744 
1 1:0.803231 2:0.007342 3:0.029369 5:0.013082761 7:0.020405787 
1 1:0.771084 2:0.018072 3:0.024096 5:0.017018771 7:0.016088744 
1 1:0.748837 2:0.032558 3:0.032558 5:0.038689189 6:0.0051900052 7:0.016392512 
1 1:0.731844 2:0.011173 3:0.117318 5:0.011159483 7:0.02275514 
1 1:0.76 2:0.0225 3:0.0275 5:0.028893892 6:0.0023250023 7:0.019664634 
1 1:0.702564 2:0.025641 3:0.092308 5:0.025658611 7:0.018167604 
1 1:0.785714 2:0.011278 3:0.037594 5:0.024518062 7:0.020905921 
1 1:0.735099 2:0.022075 3:0.046358 5:0.027432797 7:0.014631457 
1 1:0.768769 2:0.012012 3:0.024024 5:0.01899423 7:0.014374128 
1 1:0.785388 2:0.019787 3:0.03653 5:0.020425507 6:0.0041100041 7:0.020325201 
1 1:0.756691 2:0.004866 3:0.065693 5:0.012680214 7:0.017447037 
1 1:0.736842 2:0.037152 3:0.024768 5:0.047731576 6:0.012807013 7:0.017688591 
1 1:0.757216 2:0.018676 3:0.040747 5:0.027991889 6:0.0016080016 7:0.019296866 
1 1:0.763889 2:0.013889 3:0.020833 5:0.02036587 7:0.01549797 
1 1:0.783951 2:0.012346 3:0.055556 5:0.014364946 7:0.01953478 
1 1:0.765625 2:0.015625 3:0.054688 7:0.017625762 
1 1:0.754011 2:0.023173 3:0.039216 5:0.036475184 7:0.017770963 
1 1:0.744681 2:0.042553 3:0.042553 5:0.043303565 6:0.0074700075 7:0.019541384 
1 1:0.791139 2:0.009494 3:0.028481 5:0.016362769 7:0.017578726 
1 1:0.75817 2:0.039216 3:0.019608 5:0.019016594 6:0.022959023 7:0.015622512 
1 1:0.751592 2:0.006369 3:0.076433 5:0.015796222 7:0.018331518 
1 1:0.744966 2:0.026846 3:0.026846 5:0.041648651 7:0.014650512 
1 1:0.703226 2:0.045161 3:0.045161 5:0.040962832 7:0.014319433 
1 1:0.751244 2:0.014925 3:0.049751 5:0.028834255 7:0.015683774 
1 1:0.758089 2:0.026194 3:0.040062 5:0.018785502 6:0.0090720091 7:0.018640311 
1 1:0.752437 2:0.011696 3:0.064327 5:0.028491345 7:0.018661152 
1 1:0.680952 2:0.047619 3:0.052381 5:0.014819674 6:0.017892018 7:0.01460511 
1 1:0.778027 2:0.013453 3:0.026906 5:0.018874957 7:0.016200921 
1 1:0.764526 2:0.006116 3:0.055046 4:0.0036900369 5:0.015796222 7:0.017602744 
1 1:0.755844 2:0.025974 3:0.028571 5:0.028558436 7:0.016534683 
1 1:0.807018 2:0.004386 3:0.04386 5:0.0091467506 7:0.021796104 
1 1:0.680952 2:0.047619 3:0.052381 5:0.014819674 6:0.017892018 7:0.01460511 
1 1:0.796526 2:0.007444 3:0.027295 5:0.012553486 7:0.017974945 
1 1:0.745679 2:0.05679 3:0.02963 5:0.048447214 6:0.024369024 7:0.018533573 
1 1:0.660714 2:0.053571 3:0.061224 4:0.0073800738 5:0.092734782 6:0.0057420057 7:0.016254976 
1 1:0.763538 2:0.01444 3:0.048736 4:0.0036900369 5:0.031398625 7:0.018292683 
1 1:0.735849 2:0.025157 3:0.031447 5:0.018136955 7:0.015761622 
1 1:0.766764 2:0.029155 3:0.03207 5:0.014618401 6:0.017646018 7:0.018132689 
1 1:0.763736 2:0.016484 3:0.049451 5:0.040590103 7:0.018460195 
1 1:0.716 2:0.084 3:0.052 5:0.047888122 6:0.028908029 7:0.022780488 
1 1:0.777397 2:0.030822 3:0.027397 5:0.016243496 6:0.013071013 7:0.019169732 
1 1:0.790055 2:0.01105 3:0.049724 5:0.012344759 7:0.020347665 
1 1:0.695853 2:0.059908 3:0.064516 5:0.096812428 7:0.017309207 
1 1:0.787115 2:0.005602 3:0.02521 5:0.015073129 7:0.016892122 
1 1:0.71978 2:0.049451 3:0.038462 6:0.035376035 7:0.014205305 
1 1:0.775132 2:0.007937 3:0.037037 5:0.019806778 7:0.01821203 
1 1:0.758427 2:0.050562 3:0.011236 5:0.024972791 6:0.025125025 7:0.020450811 
1 1:0.777012 2:0.009195 3:0.032184 5:0.011360756 7:0.018390805 
1 1:0.780069 2:0.017182 3:0.04811 5:0.039904283 7:0.019570866 
1 1:0.707736 2:0.068768 3:0.031519 5:0.019948414 6:0.04014304 7:0.019585573 
1 1:0.745283 2:0.061321 3:0.051887 5:0.047239575 6:0.0076050076 7:0.02269328 
1 1:0.773389 2:0.022869 3:0.033264 5:0.023742788 6:0.0076440076 7:0.01990264 
1 1:0.768645 2:0.015221 3:0.033486 5:0.012903851 7:0.016083823 
1 1:0.69869 2:0.039301 3:0.10917 5:0.018971866 7:0.020928744 
1 1:0.734884 2:0.023256 3:0.04186 5:0.014618401 7:0.014463982 
1 1:0.694779 2:0.076305 3:0.048193 5:0.0098772979 6:0.055629056 7:0.018488591 
1 1:0.77027 2:0.010811 3:0.027027 5:0.014648219 7:0.01677653 
1 1:0.78169 2:0.007042 3:0.021127 5:0.019314776 7:0.016575061 
1 1:0.739011 2:0.024725 3:0.035714 5:0.054709048 7:0.018259177 
1 1:0.698718 2:0.076923 3:0.051282 5:0.016526769 6:0.053214053 7:0.017628207 
1 1:0.762821 2:0.00641 3:0.025641 7:0.013484994 
1 1:0.766082 2:0.02924 3:0.023392 5:0.015624767 7:0.017008988 
1 1:0.75 2:0.031716 3:0.027985 5:0.030101531 7:0.016904805 
1 1:0.779221 2:0.004329 3:0.025974 5:0.012322395 7:0.015969805 
1 1:0.80663 2:0.005525 3:0.016575 7:0.019370701 
1 1:0.564286 2:0.214286 3:0.028571 4:0.0036900369 5:0.050944493 6:0.15034215 7:0.019120207 
1 1:0.75641 2:0.017949 3:0.033333 5:0.0071041999 7:0.016400878 
1 1:0.729469 2:0.043478 3:0.05314 5:0.055737778 6:0.011214011 7:0.015759396 
1 1:0.726872 2:0.039648 3:0.052863 5:0.049535581 6:0.00996601 7:0.016170622 
1 1:0.697561 2:0.097561 3:0.039024 5:0.067560717 6:0.036255036 7:0.019690659 
1 1:0.743017 2:0.022346 3:0.055866 5:0.063714162 7:0.015942226 
1 1:0.769036 2:0.038071 3:0.022843 5:0.025658611 6:0.018072018 7:0.017983165 
1 1:0.697561 2:0.097561 3:0.039024 5:0.067560717 6:0.036255036 7:0.019690659 
1 1:0.700637 2:0.070064 3:0.025478 5:0.079092929 6:0.031830032 7:0.014641915 
1 1:0.792398 2:0.005848 3:0.026316 5:0.015811131 7:0.016812866 
1 1:0.697561 2:0.097561 3:0.039024 5:0.067560717 6:0.036255036 7:0.019690659 
1 1:0.79717 2:0.004717 3:0.023585 5:0.011852757 7:0.018091348 
1 1:0.791304 2:0.008696 3:0.026087 5:0.011062574 7:0.017868506 
1 1:0.764331 2:0.019108 3:0.057325 5:0.040664649 7:0.021360884 
1 1:0.761807 2:0.016427 3:0.026694 5:0.030548805 7:0.015275201 
1 1:0.755274 2:0.029536 3:0.033755 5:0.036564639 6:0.0021030021 7:0.018357006 
1 1:0.760391 2:0.01467 3:0.03912 5:0.032076991 7:0.017323634 
1 1:0.749141 2:0.020619 3:0.044674 5:0.019903687 7:0.015694409 
1 1:0.701149 2:0.049808 3:0.049808 4:0.0036900369 5:0.087702951 6:0.0078420078 7:0.017872165 
1 1:0.722826 2:0.038043 3:0.043478 6:0.011859012 7:0.016768293 
1 1:0.744898 2:0.027211 3:0.047619 5:0.044108658 7:0.017525305 
1 1:0.767677 2:0.010101 3:0.065657 5:0.011435302 7:0.020078835 
1 1:0.681614 2:0.044843 3:0.042601 5:0.038100279 6:0.025554026 7:0.01605053 
1 1:0.77451 2:0.009804 3:0.039216 5:0.027007887 7:0.01649928 
1 1:0.77551 2:0.035714 3:0.028061 5:0.026433885 6:0.0063840064 7:0.021932555 
1 1:0.751592 2:0.023355 3:0.042463 5:0.047045756 7:0.018460982 
1 1:0.73374 2:0.03252 3:0.038618 5:0.040142829 7:0.016111445 
1 1:0.585185 2:0.192593 3:0.022222 4:0.0036900369 5:0.056759054 6:0.12944113 7:0.017795848 
1 1:0.756303 2:0.014006 3:0.02521 5:0.034864998 7:0.018258524 
1 1:0.763736 2:0.016484 3:0.049451 5:0.040590103 7:0.018460195 
1 1:0.716 2:0.084 3:0.052 5:0.047888122 6:0.028908029 7:0.022780488 
1 1:0.752066 2:0.016529 3:0.123967 5:0.013932581 7:0.026960293 
1 1:0.71564 2:0.014218 3:0.080569 5:0.037459186 7:0.017252341 
1 1:0.764228 2:0.03252 3:0.04065 5:0.019359504 7:0.01908586 
1 1:0.763593 2:0.021277 3:0.035461 5:0.027007887 6:0.0081510082 7:0.015914201 
1 1:0.752688 2:0.014337 3:0.028674 5:0.021029326 7:0.015495238 
1 1:0.768595 2:0.012397 3:0.028926 5:0.026292249 7:0.014286433 
1 1:0.575 2:0.075 3:0.07 4:0.0036900369 5:0.18271137 7:0.018658537 
1 1:0.760181 2:0.016591 3:0.049774 5:0.040575194 7:0.018586982 
1 1:0.761755 2:0.025078 3:0.047022 5:0.035737182 7:0.019936543 
1 1:0.800725 2:0.018116 3:0.032609 5:0.014774947 7:0.022291445 
1 1:0.747826 2:0.024348 3:0.033043 5:0.041879743 7:0.015100744 
1 1:0.725111 2:0.029718 3:0.05052 5:0.044138476 7:0.015302793 
1 1:0.753846 2:0.015385 3:0.038462 5:0.025531883 7:0.013696061 
1 1:0.791837 2:0.004082 3:0.028571 5:0.010540754 7:0.017595817 
1 1:0.694656 2:0.015267 3:0.083969 5:0.04809685 7:0.014429341 
1 1:0.743191 2:0.027237 3:0.019455 5:0.038159915 7:0.01390339 
1 1:0.767196 2:0.010582 3:0.031746 5:0.014849492 7:0.01619564 
1 1:0.771242 2:0.013072 3:0.052288 5:0.024048425 7:0.018531805 
1 1:0.742905 2:0.015025 3:0.051753 5:0.04141756 7:0.016490902 
1 1:0.745704 2:0.030928 3:0.041237 5:0.03731755 6:0.0037560038 7:0.016742098 
1 1:0.756152 2:0.020134 3:0.029083 5:0.032725538 7:0.015537183 
1 1:0.758242 2:0.021978 3:0.06044 5:0.035550818 7:0.021073439 
1 1:0.693069 2:0.044554 3:0.074257 5:0.10536281 7:0.017085244 
1 1:0.754991 2:0.025408 3:0.052632 5:0.046695392 7:0.019432518 
1 1:0.712934 2:0.022082 3:0.072555 5:0.051108494 7:0.019639146 
1 1:0.759399 2:0.037594 3:0.015038 6:0.027273027 7:0.015129287 
1 1:0.713235 2:0.022059 3:0.066176 7:0.014930055 
1 1:0.803371 2:0.005618 3:0.033708 5:0.012262758 7:0.020827622 
1 1:0.766284 2:0.022989 3:0.049808 5:0.043698657 7:0.019928043 
1 1:0.763636 2:0.025455 3:0.029091 7:0.016518848 
1 1:0.770115 2:0.019157 3:0.049808 5:0.043952112 7:0.019811232 
1 1:0.738916 2:0.019704 3:0.054187 5:0.044071385 7:0.017782049 
1 1:0.794179 2:0.010395 3:0.035343 5:0.019866414 7:0.019027939 
1 1:0.736742 2:0.034091 3:0.049242 5:0.055253232 6:0.004044004 7:0.017137841 
1 1:0.741007 2:0.014388 3:0.021583 4:0.0036900369 5:0.040075738 7:0.016318652 
1 1:0.743961 2:0.024155 3:0.057971 5:0.059353242 7:0.018498878 
1 1:0.73545 2:0.026455 3:0.047619 4:0.0036900369 5:0.028454072 7:0.016905409 
1 1:0.77628 2:0.013477 3:0.032345 5:0.027760798 7:0.017651701 
1 1:0.801242 2:0.006211 3:0.031056 5:0.014282945 7:0.019769732 
1 1:0.726496 2:0.029915 3:0.08547 5:0.060039062 7:0.019413177 
1 1:0.722513 2:0.04712 3:0.031414 5:0.045085206 7:0.015834506 
1 1:0.794872 2:0.008547 3:0.042735 5:0.01951605 7:0.019908274 
1 1:0.778641 2:0.017476 3:0.019417 5:0.016392587 7:0.016149659 
1 1:0.740933 2:0.031088 3:0.041451 5:0.028782073 7:0.016365476 
1 1:0.772926 2:0.030568 3:0.026201 5:0.033836268 6:0.013617014 7:0.017600384 
1 1:0.753555 2:0.009479 3:0.061611 5:0.02456279 7:0.017541323 
1 1:0.742188 2:0.015625 3:0.039062 5:0.051764495 7:0.013719512 
1 1:0.764602 2:0.014159 3:0.037168 5:0.036057728 7:0.017850207 
1 1:0.795322 2:0.005848 3:0.038012 5:0.013045488 7:0.020378689 
1 1:0.764706 2:0.007353 3:0.080882 5:0.016713133 7:0.019996415 
1 1:0.714894 2:0.057447 3:0.048936 5:0.070564907 6:0.0081150081 7:0.01918786 
1 1:0.733906 2:0.034335 3:0.038627 5:0.037779733 7:0.015492512 
1 1:0.678125 2:0.109375 3:0.04375 5:0.035603 6:0.065904066 7:0.019950457 
1 1:0.669173 2:0.045113 3:0.075188 5:0.053247954 7:0.025673939 
1 1:0.749515 2:0.021359 3:0.031068 5:0.033962996 7:0.015593177 
1 1:0.756098 2:0.02439 3:0.039024 5:0.025144246 7:0.017638311 
1 1:0.793388 2:0.008264 3:0.020661 5:0.010555663 7:0.01778875 
1 1:0.783422 2:0.005348 3:0.016043 5:0.007290564 7:0.016662317 
1 1:0.755396 2:0.02518 3:0.035971 5:0.029385893 7:0.016691524 
1 1:0.756614 2:0.026455 3:0.021164 5:0.015088038 7:0.015937543 
1 1:0.772414 2:0.006897 3:0.041379 5:0.019113503 7:0.016400335 
1 1:0.673077 2:0.019231 3:0.102564 5:0.039546464 7:0.014735774 
1 1:0.806452 2:0.018433 3:0.02765 5:0.0086100219 6:0.0034650035 7:0.024334043 
1 1:0.723404 2:0.021277 3:0.055319 5:0.013731308 7:0.014089256 
1 1:0.734783 2:0.06087 3:0.047826 5:0.062491614 6:0.017964018 7:0.022136799 
1 1:0.72549 2:0.027451 3:0.05098 5:0.076849105 7:0.01623625 
1 1:0.779967 2:0.011494 3:0.024631 5:0.018159319 6:0.0018270018 7:0.016440384 
1 1:0.7866 2:0.01737 3:0.032258 5:0.017704591 7:0.019109726 
1 1:0.737589 2:0.060284 3:0.028369 5:0.037086458 6:0.02985003 7:0.017384537 
1 1:0.761364 2:0.011364 3:0.034091 5:0.025703338 7:0.015070677 
1 1:0.772512 2:0.009479 3:0.023697 5:0.013910217 7:0.015489537 
1 1:0.752717 2:0.035326 3:0.038043 5:0.013321307 6:0.018768019 7:0.018541226 
1 1:0.738516 2:0.031802 3:0.063604 5:0.0676949 7:0.018982159 
1 1:0.758333 2:0.025 3:0.041667 5:0.0463003 7:0.016361787 
1 1:0.758929 2:0.008929 3:0.041667 5:0.027104796 7:0.014971689 
1 1:0.699045 2:0.05414 3:0.079618 5:0.11845303 7:0.018331518 
1 1:0.735099 2:0.086093 3:0.019868 5:0.015796222 6:0.050847051 7:0.019059927 
1 1:0.746269 2:0.022388 3:0.029851 7:0.015562433 
1 1:0.720513 2:0.058974 3:0.025641 5:0.032218627 6:0.028521029 7:0.018089433 
1 1:0.757778 2:0.022222 3:0.044444 5:0.041283378 6:0.0023730024 7:0.017127372 
1 1:0.777344 2:0.017578 3:0.042969 5:0.018338228 6:0.0018450018 7:0.019364518 
1 1:0.728477 2:0.013245 3:0.07947 7:0.016798579 
1 1:0.767372 2:0.012085 3:0.030211 5:0.023742788 7:0.017353183 
1 1:0.740933 2:0.033679 3:0.046632 5:0.013380943 6:0.013464013 7:0.017597622 
1 1:0.731034 2:0.062069 3:0.110345 5:0.021789692 7:0.10071488 
1 1:0.797965 2:0.00436 3:0.023256 5:0.011472575 7:0.01727347 
1 1:0.75 2:0.02 3:0.065 5:0.024048425 7:0.018902439 
1 1:0.710744 2:0.066116 3:0.033058 5:0.056759054 6:0.015228015 7:0.019854866 
1 1:0.745679 2:0.05679 3:0.02963 5:0.048447214 6:0.024369024 7:0.018533573 
1 1:0.793785 2:0.016949 3:0.036723 5:0.016422405 6:0.0022020022 7:0.02346011 
1 1:0.756677 2:0.032641 3:0.047478 5:0.022296602 6:0.014955015 7:0.018147933 
1 1:0.735294 2:0.026471 3:0.041176 5:0.032591356 7:0.01640961 
1 1:0.745679 2:0.05679 3:0.02963 5:0.048447214 6:0.024369024 7:0.018533573 
1 1:0.734266 2:0.006993 3:0.062937 5:0.022058056 7:0.014412415 
1 1:0.723926 2:0.042945 3:0.042945 5:0.053121226 7:0.015748915 
1 1:0.734568 2:0.024691 3:0.049383 5:0.036184456 7:0.015507378 
1 1:0.747967 2:0.020325 3:0.036585 5:0.024063334 7:0.015355445 
1 1:0.803371 2:0.005618 3:0.033708 5:0.012262758 7:0.020827622 
1 1:0.774286 2:0.017143 3:0.028571 5:0.014804765 7:0.017543555 
1 1:0.787402 2:0.009843 3:0.031496 5:0.023295514 7:0.019204915 
1 1:0.794922 2:0.007812 3:0.033203 5:0.019128412 7:0.018566598 
1 1:0.752608 2:0.014903 3:0.031297 5:0.035103544 7:0.01543928 
1 1:0.736501 2:0.049676 3:0.043197 5:0.056617417 6:0.011391011 7:0.020808091 
1 1:0.804124 2:0.007364 3:0.04271 5:0.011405484 7:0.023483244 
1 1:0.77027 2:0.013514 3:0.114865 5:0.010898573 7:0.028180622 
1 1:0.729927 2:0.021898 3:0.043796 5:0.036900094 7:0.017981128 
1 1:0.719457 2:0.0181 3:0.036199 5:0.013530034 7:0.015202518 
1 1:0.772563 2:0.019856 3:0.050542 5:0.030757533 7:0.021341463 
1 1:0.756757 2:0.040541 3:0.031532 5:0.032889538 6:0.013236013 7:0.018677213 
1 1:0.78836 2:0.010582 3:0.037037 5:0.012762214 7:0.01884114 
1 1:0.766393 2:0.016393 3:0.02459 5:0.011398029 7:0.016343463 
1 1:0.774194 2:0.008065 3:0.032258 5:0.023668242 7:0.015489774 
1 1:0.797654 2:0.008798 3:0.035191 5:0.020746053 7:0.019276159 
1 1:0.73 2:0.02 3:0.055 5:0.015565131 7:0.014603659 
1 1:0.706522 2:0.016304 3:0.081522 5:0.015341494 7:0.016105512 
1 1:0.745679 2:0.05679 3:0.02963 5:0.048447214 6:0.024369024 7:0.018533573 
1 1:0.762195 2:0.02439 3:0.018293 5:0.017212589 7:0.016099049 
1 1:0.758893 2:0.019763 3:0.031621 5:0.023407332 7:0.01535236 
1 1:0.75 2:0.016129 3:0.040323 5:0.046591028 7:0.01573564 
1 1:0.761905 2:0.014286 3:0.038095 5:0.013127488 7:0.016492451 
1 1:0.734043 2:0.015957 3:0.069149 5:0.015088038 7:0.016022317 
1 1:0.765152 2:0.030303 3:0.060606 5:0.034589179 7:0.019909463 
1 1:0.759399 2:0.030075 3:0.180451 5:0.0014909129 7:0.2289107 
1 1:0.746082 2:0.018809 3:0.062696 5:0.041141741 7:0.017317835 
1 1:0.780488 2:0.00813 3:0.02439 5:0.021730055 7:0.017003768 
1 1:0.688073 2:0.039755 3:0.094801 5:0.068321083 7:0.018311329 
1 1:0.748092 2:0.022901 3:0.076336 5:0.018494774 7:0.018758146 
1 1:0.703364 2:0.033639 3:0.079511 5:0.095239515 7:0.016055049 
1 1:0.770073 2:0.014599 3:0.032847 5:0.029311347 7:0.016979707 
1 1:0.742515 2:0.017964 3:0.047904 5:0.035580636 7:0.015298671 
1 1:0.706493 2:0.077922 3:0.044156 5:0.02472679 6:0.047265047 7:0.019100415 
1 1:0.759009 2:0.040541 3:0.029279 5:0.017242408 6:0.020817021 7:0.017812018 
1 1:0.797386 2:0.013072 3:0.039216 5:0.013574762 7:0.021879482 
1 1:0.762195 2:0.02439 3:0.04878 5:0.025017518 7:0.022159427 
1 1:0.760714 2:0.010714 3:0.039286 5:0.032181355 7:0.015135018 
1 1:0.726708 2:0.043478 3:0.018634 5:0.054015774 6:0.021738022 7:0.015679445 
1 1:0.77069 2:0.010345 3:0.039655 5:0.016780225 7:0.018681665 
1 1:0.77619 2:0.011905 3:0.02619 5:0.02524861 7:0.017145762 
1 1:0.768856 2:0.009732 3:0.03163 5:0.028454072 7:0.015548037 
1 1:0.687861 2:0.092486 3:0.046243 5:0.014879311 6:0.065868066 7:0.017658256 
1 1:0.761494 2:0.022989 3:0.045977 5:0.0070147451 7:0.018625598 
1 1:0.729167 2:0.03869 3:0.047619 5:0.030839533 6:0.0093060093 7:0.017548634 
1 1:0.759591 2:0.015345 3:0.030691 5:0.03380645 7:0.013754598 
1 1:0.746725 2:0.037118 3:0.034934 5:0.052994499 6:0.0094800095 7:0.016854829 
1 1:0.73617 2:0.025532 3:0.055319 5:0.014484219 7:0.020031134 
1 1:0.780864 2:0.003086 3:0.027778 5:0.0089603864 7:0.015657933 
1 1:0.756098 2:0.00813 3:0.04878 5:0.026530795 7:0.013930201 
1 1:0.759036 2:0.018072 3:0.060241 5:0.043765748 7:0.018770201 8:0.023809524 
1 1:0.72093 2:0.034884 3:0.075581 5:0.053918865 7:0.019604366 
1 1:0.737991 2:0.030568 3:0.034934 5:0.025099518 7:0.015816378 
1 1:0.728155 2:0.029126 3:0.067961 5:0.050571765 6:0.0040710041 7:0.021815061 
1 1:0.705686 2:0.036789 3:0.046823 5:0.058973059 7:0.012888488 
1 1:0.758264 2:0.014463 3:0.024793 5:0.018666229 7:0.015092726 
1 1:0.721925 2:0.02139 3:0.042781 5:0.061992158 7:0.015684098 
1 1:0.746667 2:0.026667 3:0.113333 5:0.034350633 7:0.026463415 
1 1:0.773547 2:0.018036 3:0.028056 5:0.026814068 7:0.016985189 
1 1:0.790698 2:0.009302 3:0.026357 5:0.015423494 7:0.018273774 
1 1:0.695122 2:0.012195 3:0.103659 7:0.015392622 
1 1:0.8 2:0.010667 3:0.034667 5:0.017428772 7:0.020861787 
1 1:0.764228 2:0.00813 3:0.056911 5:0.01873332 7:0.019730317 
1 1:0.707692 2:0.030769 3:0.084615 5:0.036721184 7:0.019043152 
1 1:0.744472 2:0.022113 3:0.041769 5:0.021610782 6:0.0057960058 7:0.015506085 
1 1:0.793388 2:0.008264 3:0.049587 5:0.01822641 7:0.020610762 
1 1:0.775785 2:0.017937 3:0.042601 5:0.015341494 6:0.0020580021 7:0.01993328 
1 1:0.756757 2:0.016216 3:0.016216 5:0.017667318 7:0.01390903 
1 1:0.75 2:0.009434 3:0.028302 5:0.023176241 7:0.013877701 
1 1:0.71097 2:0.067511 3:0.044304 5:0.080039658 6:0.021474021 7:0.017971079 
1 1:0.766404 2:0.015748 3:0.020997 5:0.021715146 7:0.01648422 
1 1:0.776119 2:0.00995 3:0.029851 5:0.015527858 7:0.014561341 
1 1:0.808349 2:0.003795 3:0.030361 5:0.0086174765 7:0.020016659 8:0.023809524 
1 1:0.770335 2:0.0311 3:0.043062 5:0.021640601 6:0.017418017 7:0.02010153 
1 1:0.80236 2:0.00295 3:0.035398 5:0.0062767432 7:0.021368445 
1 1:0.758974 2:0.020513 3:0.025641 5:0.015498039 6:0.0062370062 7:0.015040652 
1 1:0.762295 2:0.02459 3:0.040984 7:0.017792884 
1 1:0.753086 2:0.018519 3:0.055556 5:0.034432633 7:0.016297799 
1 1:0.748718 2:0.020513 3:0.05641 5:0.016191314 7:0.02879925 
1 1:0.720833 2:0.035417 3:0.0375 4:0.0036900369 5:0.059353242 6:0.0023880024 7:0.015955287 
1 1:0.708571 2:0.045714 3:0.034286 5:0.035498636 7:0.014634146 
1 1:0.700637 2:0.070064 3:0.025478 5:0.079092929 6:0.031830032 7:0.014641915 
1 1:0.73251 2:0.041152 3:0.028807 5:0.045592116 7:0.01641072 
1 1:0.763819 2:0.005025 3:0.035176 5:0.013552398 7:0.016852555 
1 1:0.795455 2:0.005682 3:0.028409 7:0.018465909 
1 1:0.75 2:0.024752 3:0.029703 5:0.036683912 6:0.002952003 7:0.015334463 
1 1:0.686275 2:0.104575 3:0.03268 5:0.033880995 6:0.068181068 7:0.01753547 8:0.023809524 
1 1:0.778641 2:0.017476 3:0.019417 5:0.016392587 7:0.016149659 
1 1:0.748441 2:0.035343 3:0.027027 5:0.012031667 6:0.019371019 7:0.01570661 
1 1:0.703488 2:0.011628 3:0.075581 5:0.017667318 7:0.014960293 
1 1:0.760956 2:0.015936 3:0.047809 5:0.03140608 7:0.017296665 
1 1:0.738095 2:0.027778 3:0.047619 5:0.021267872 7:0.016961866 
1 1:0.776722 2:0.007126 3:0.028504 5:0.020514961 7:0.015787037 
1 1:0.721311 2:0.032787 3:0.054645 5:0.014588583 7:0.017026524 
1 1:0.731313 2:0.028283 3:0.028283 5:0.048290668 7:0.01521311 8:0.14285714 
1 1:0.778626 2:0.015267 3:0.030534 5:0.021357327 7:0.016244646 
1 1:0.751131 2:0.036199 3:0.027149 5:0.037839369 6:0.01015201 7:0.016306146 
1 1:0.718391 2:0.063218 3:0.08046 5:0.066457442 6:0.013374013 7:0.023584244 
1 1:0.778555 2:0.020979 3:0.02331 5:0.017555499 6:0.0070650071 7:0.018107909 
1 1:0.759375 2:0.025 3:0.015625 5:0.027171887 6:0.0036450036 7:0.015682165 
1 1:0.757669 2:0.027607 3:0.018405 5:0.018136955 6:0.0072990073 7:0.015374829 
1 1:0.722513 2:0.036649 3:0.036649 5:0.049475944 7:0.014429829 
1 1:0.745679 2:0.05679 3:0.02963 5:0.048447214 6:0.024369024 7:0.018533573 
1 1:0.769231 2:0.014888 3:0.047146 5:0.015893131 7:0.035480848 
1 1:0.753425 2:0.013699 3:0.034247 5:0.023153877 7:0.013448043 
1 1:0.763485 2:0.016598 3:0.03112 5:0.021528782 6:0.0043320043 7:0.017521 
1 1:0.699531 2:0.061033 3:0.042254 5:0.012098758 6:0.0097410097 7:0.017634262 
1 1:0.693069 2:0.049505 3:0.024752 4:0.011070111 5:0.039032099 7:0.017296549 
1 1:0.773756 2:0.004525 3:0.0181 5:0.015468221 7:0.01329875 
1 1:0.773585 2:0.014151 3:0.023585 5:0.014335127 7:0.01495628 
1 1:0.761421 2:0.015228 3:0.035533 5:0.029997167 7:0.015383189 
1 1:0.745174 2:0.027027 3:0.025097 5:0.039710465 7:0.015467561 
1 1:0.773414 2:0.009063 3:0.060423 5:0.013932581 7:0.019711146 
1 1:0.717742 2:0.112903 3:0.024194 5:0.062640705 6:0.037815038 7:0.023406768 
1 1:0.766154 2:0.012308 3:0.036923 5:0.025762975 7:0.016285177 
1 1:0.731915 2:0.042553 3:0.034043 5:0.040441012 6:0.027126027 7:0.014348726 
1 1:0.646465 2:0.040404 3:0.065657 5:0.032621174 6:0.0065640066 7:0.014073665 
1 1:0.78934 2:0.007614 3:0.022843 5:0.014364946 7:0.016064134 
1 1:0.697987 2:0.026846 3:0.100671 5:0.014819674 7:0.020584384 
1 1:0.780576 2:0.007194 3:0.061151 5:0.015102948 7:0.021648537 
1 1:0.786364 2:0.009091 3:0.05 5:0.020015505 7:0.020648561 
1 1:0.761329 2:0.015106 3:0.036254 5:0.023220968 7:0.017740037 
1 1:0.764511 2:0.016584 3:0.054726 5:0.038368643 7:0.019647695 
1 1:0.760638 2:0.015957 3:0.042553 5:0.042036289 7:0.017254799 
1 1:0.755556 2:0.014815 3:0.007407 5:0.02070878 7:0.016260165 
1 1:0.697531 2:0.030864 3:0.04321 7:0.01163053 
1 1:0.777778 2:0.007407 3:0.02963 5:0.020589507 7:0.0163505 
1 1:0.677419 2:0.051613 3:0.051613 5:0.073807642 6:0.0074250074 7:0.015893 
1 1:0.795238 2:0.02381 3:0.057143 5:0.015691858 7:0.041376305 
1 1:0.763158 2:0.022556 3:0.071429 5:0.030548805 7:0.022373006 
1 1:0.8 2:0.007921 3:0.027723 5:0.0099891163 7:0.018027049 
1 1:0.772414 2:0.027586 3:0.034483 5:0.017003861 6:0.013683014 7:0.018439866 
1 1:0.753247 2:0.045455 3:0.058442 5:0.053151044 7:0.022212543 
1 1:0.771044 2:0.023569 3:0.063973 5:0.02789498 7:0.021947116 
1 1:0.763975 2:0.018634 3:0.037267 5:0.032412446 7:0.017421604 
1 1:0.730233 2:0.027907 3:0.037209 5:0.013358579 7:0.015825299 
1 1:0.748 2:0.032 3:0.04 5:0.010496027 7:0.017317073 
1 1:0.724638 2:0.036232 3:0.057971 4:0.0036900369 5:0.069208176 7:0.016657829 
1 1:0.792208 2:0.019481 3:0.045455 5:0.013008215 7:0.022687677 
1 1:0.665493 2:0.06338 3:0.098592 5:0.11557557 7:0.019387665 
1 1:0.757979 2:0.021277 3:0.029255 5:0.014953856 7:0.016168268 
1 1:0.73913 2:0.038043 3:0.054348 5:0.039032099 7:0.018988598 
1 1:0.67757 2:0.009346 3:0.158879 7:0.2513107 
1 1:0.717445 2:0.036855 3:0.068796 5:0.059584333 6:0.007992008 7:0.016869421 
1 1:0.780952 2:0.028571 3:0.028571 5:0.021894056 6:0.013215013 7:0.019773518 
1 1:0.771605 2:0.024691 3:0.030864 5:0.024413699 7:0.017238787 
1 1:0.744898 2:0.010204 3:0.056122 5:0.014305309 7:0.016208311 
1 1:0.765896 2:0.017341 3:0.026012 5:0.0081702026 7:0.016072183 
1 1:0.766284 2:0.019157 3:0.042146 5:0.040962832 7:0.017007756 
1 1:0.727273 2:0.035885 3:0.033493 5:0.036050274 6:0.011604012 7:0.015083439 
1 1:0.750751 2:0.027027 3:0.024024 5:0.026500977 7:0.015454476 
1 1:0.8 2:0.010667 3:0.034667 5:0.017428772 7:0.020861787 
1 1:0.745856 2:0.027624 3:0.055249 5:0.046769937 7:0.026849482 
1 1:0.784314 2:0.007843 3:0.019608 5:0.015214766 7:0.017575323 
1 1:0.7431 2:0.067941 3:0.023355 5:0.042543199 6:0.022827023 7:0.020415823 
1 1:0.754476 2:0.015345 3:0.048593 5:0.0067538354 7:0.01721664 
1 1:0.745679 2:0.05679 3:0.02963 5:0.048447214 6:0.024369024 7:0.018533573 
1 1:0.761557 2:0.012165 3:0.036496 5:0.027328433 7:0.016185982 
1 1:0.691304 2:0.043478 3:0.073913 5:0.048409941 7:0.01633086 
1 1:0.764706 2:0.014706 3:0.044118 5:0.020313688 7:0.016454445 
1 1:0.763485 2:0.016598 3:0.03112 5:0.021528782 6:0.0043320043 7:0.017521 
1 1:0.791139 2:0.006329 3:0.012658 7:0.014935165 
1 1:0.779264 2:0.033445 3:0.036789 5:0.021275327 6:0.011418011 7:0.021433232 
1 1:0.780556 2:0.011111 3:0.033333 5:0.028640437 7:0.017632116 
1 1:0.689537 2:0.039451 3:0.034305 5:0.084445306 6:0.0037770038 7:0.016619256 
1 1:0.727273 2:0.020661 3:0.078512 5:0.020507507 7:0.018317878 
1 1:0.774436 2:0.022556 3:0.022556 7:0.018292683 
1 1:0.756039 2:0.021739 3:0.041063 5:0.019478777 6:0.0052260052 7:0.016908213 
1 1:0.761658 2:0.031088 3:0.041451 4:0.0036900369 5:0.039032099 7:0.018103122 
1 1:0.688073 2:0.039755 3:0.094801 5:0.068321083 7:0.018311329 
1 1:0.711268 2:0.035211 3:0.084507 5:0.068388174 7:0.018722091 
1 1:0.751412 2:0.050847 3:0.022599 5:0.046494118 6:0.024948025 7:0.016570207 
1 1:0.724265 2:0.058824 3:0.033088 5:0.049498308 6:0.027888028 7:0.016880378 
1 1:0.792793 2:0.014414 3:0.027027 5:0.016355314 7:0.020028567 
1 1:0.753383 2:0.03609 3:0.031579 5:0.022840785 6:0.015321015 7:0.017953421 
1 1:0.748137 2:0.011923 3:0.04769 5:0.014752583 6:0.0011880012 7:0.022954457 
1 1:0.741176 2:0.020588 3:0.041176 4:0.0036900369 5:0.039069372 7:0.017109037 
1 1:0.753363 2:0.013453 3:0.040359 5:0.02781298 7:0.014656018 
1 1:0.751479 2:0.017751 3:0.029586 5:0.032412446 7:0.016596915 
1 1:0.794702 2:0.013245 3:0.033113 5:0.014819674 7:0.020311744 
1 1:0.776 2:0.016 3:0.032 5:0.021424418 7:0.01697561 
1 1:0.74359 2:0.023077 3:0.028205 5:0.016116768 6:0.0064860065 7:0.014462165 
1 1:0.727778 2:0.011111 3:0.066667 5:0.014253127 7:0.017716799 
1 1:0.767606 2:0.028169 3:0.025822 5:0.023891879 6:0.0096150096 7:0.017863274 
1 1:0.75 2:0.0125 3:0.04375 5:0.019359504 7:0.014672256 
1 1:0.769928 2:0.014493 3:0.03442 5:0.029192074 7:0.016922939 
1 1:0.775915 2:0.015244 3:0.035061 5:0.02626243 7:0.018469287 
1 1:0.716895 2:0.027397 3:0.045662 4:0.0036900369 5:0.085518763 6:0.0057360057 7:0.014561756 
1 1:0.789474 2:0.009288 3:0.021672 5:0.015259493 7:0.018443707 
1 1:0.777551 2:0.008163 3:0.044898 5:0.014148763 7:0.01967397 
1 1:0.708738 2:0.067961 3:0.029126 5:0.025613883 6:0.048111048 7:0.017227091 
1 1:0.8 2:0.009756 3:0.034146 5:0.011524757 7:0.0192445 
1 1:0.747126 2:0.051724 3:0.034483 5:0.011345847 6:0.012177012 7:0.034535323 
1 1:0.740458 2:0.015267 3:0.061069 5:0.041298287 7:0.016803201 
1 1:0.744737 2:0.034211 3:0.026316 5:0.038189734 7:0.015661104 
1 1:0.771543 2:0.02004 3:0.028056 5:0.021528782 7:0.016924091 
1 1:0.798781 2:0.02439 3:0.030488 5:0.014335127 6:0.011538012 7:0.019333732 
1 1:0.784173 2:0.014388 3:0.028777 7:0.018512018 
1 1:0.790055 2:0.01105 3:0.022099 5:0.0069774723 6:0.0056190056 7:0.017989488 
1 1:0.774194 2:0.008065 3:0.024194 5:0.023742788 7:0.015440598 
1 1:0.756906 2:0.022099 3:0.033149 5:0.023638424 7:0.015934512 
1 1:0.748837 2:0.009302 3:0.060465 5:0.025054791 7:0.016874646 
1 1:0.747863 2:0.021368 3:0.047009 5:0.047709212 7:0.01628622 
1 1:0.761905 2:0.010582 3:0.031746 5:0.020067687 7:0.023970835 
1 1:0.7897 2:0.01073 3:0.032189 5:0.015371312 7:0.019038524 
1 1:0.7375 2:0.01875 3:0.0375 5:0.019985687 7:0.014214939 
1 1:0.79351 2:0.0059 3:0.044248 5:0.0066121986 7:0.020289232 
1 1:0.760976 2:0.019512 3:0.029268 5:0.026814068 7:0.016537774 
1 1:0.744417 2:0.032258 3:0.039702 5:0.049699581 7:0.018156512 
1 1:0.788396 2:0.017065 3:0.030717 5:0.016049677 7:0.019333226 
1 1:0.7875 2:0.0125 3:0.05 5:0.02781298 7:0.020426829 
1 1:0.796651 2:0.019139 3:0.026316 5:0.015423494 6:0.0062070062 7:0.021151823 
1 1:0.758491 2:0.022642 3:0.033962 5:0.010264935 7:0.016705018 
1 1:0.656 2:0.04 3:0.048 5:0.097319339 7:0.018682927 8:0.023809524 
1 1:0.743243 2:0.022523 3:0.033033 5:0.050266128 7:0.017651799 
1 1:0.725111 2:0.029718 3:0.05052 5:0.044138476 7:0.015302793 
1 1:0.782274 2:0.015414 3:0.025048 5:0.015416039 6:0.0020670021 7:0.017047323 
1 1:0.773784 2:0.010571 3:0.038055 5:0.016139132 7:0.017867274 8:0.023809524 
1 1:0.788591 2:0.006711 3:0.026846 5:0.017577863 7:0.017351451 
1 1:0.790123 2:0.006173 3:0.024691 5:0.016981498 7:0.01652364 
1 1:0.768683 2:0.010676 3:0.039146 5:0.017316953 7:0.018683274 
1 1:0.708333 2:0.013889 3:0.069444 5:0.041186468 7:0.015328591 
1 1:0.677419 2:0.08871 3:0.040323 5:0.10074098 6:0.03040503 7:0.01455547 
1 1:0.762195 2:0.02439 3:0.04878 5:0.025017518 7:0.022159427 
1 1:0.756098 2:0.02439 3:0.02439 7:0.015070396 
1 1:0.745455 2:0.016364 3:0.034545 5:0.036363365 7:0.018181817 
1 1:0.726667 2:0.033333 3:0.053333 5:0.072547821 7:0.016707317 
1 1:0.744361 2:0.028195 3:0.050752 5:0.020172051 7:0.016940213 
1 1:0.738916 2:0.029557 3:0.029557 5:0.03080226 7:0.014538024 
1 1:0.788151 2:0.021544 3:0.035907 5:0.011427847 6:0.0091980092 7:0.021423567 
1 1:0.752363 2:0.024575 3:0.032136 5:0.022810967 7:0.015065244 
1 1:0.767123 2:0.013699 3:0.034247 5:0.02662025 7:0.017540927 
1 1:0.764228 2:0.01626 3:0.01626 7:0.01511997 
1 1:0.783476 2:0.014245 3:0.037037 5:0.018986776 7:0.020464177 
1 1:0.764398 2:0.020942 3:0.062827 5:0.046084117 7:0.020655085 
1 1:0.75 2:0.023438 3:0.101562 4:0.0036900369 5:0.0092511145 7:0.038395579 
1 1:0.770781 2:0.007557 3:0.042821 5:0.019463868 7:0.017647604 
1 1:0.781609 2:0.013793 3:0.029885 5:0.016422405 6:0.0044040044 7:0.019091671 
1 1:0.774403 2:0.006508 3:0.0282 5:0.012262758 7:0.016083805 
1 1:0.77439 2:0.012195 3:0.018293 5:0.017831318 7:0.015541341 
1 1:0.762082 2:0.01487 3:0.04461 5:0.027440252 7:0.018474024 
1 1:0.78626 2:0.030534 3:0.030534 5:0.015468221 7:0.022435299 
1 1:0.742902 2:0.020505 3:0.044164 5:0.025971702 6:0.0034830035 7:0.016561512 
1 1:0.758929 2:0.008929 3:0.041667 5:0.027104796 7:0.014971689 
1 1:0.753138 2:0.025105 3:0.033473 5:0.011576939 7:0.01643025 
1 1:0.748936 2:0.014894 3:0.02766 5:0.038398461 7:0.01763103 
1 1:0.758993 2:0.028777 3:0.028777 5:0.034469906 6:0.0034680035 7:0.018972628 
1 1:0.77095 2:0.011173 3:0.027933 5:0.016310587 7:0.015567518 
1 1:0.724868 2:0.026455 3:0.071429 5:0.029892803 7:0.0201155 
1 1:0.787004 2:0.00722 3:0.025271 5:0.01951605 7:0.016817823 
1 1:0.763206 2:0.029144 3:0.041894 5:0.040493194 7:0.020447378 
1 1:0.767213 2:0.016393 3:0.029508 5:0.018681138 7:0.015953616 
1 1:0.704348 2:0.034783 3:0.03913 5:0.072726731 7:0.016304348 
1 1:0.744589 2:0.021645 3:0.038961 5:0.027358251 7:0.014386018 
1 1:0.751111 2:0.031111 3:0.035556 5:0.012762214 6:0.0051360051 7:0.015826561 
1 1:0.760234 2:0.01462 3:0.046784 5:0.01634786 7:0.016260165 
1 1:0.750794 2:0.028571 3:0.034921 5:0.02567352 7:0.016860238 
1 1:0.77561 2:0.029268 3:0.063415 5:0.028342254 7:0.023468171 
1 1:0.671642 2:0.129353 3:0.029851 5:0.034350633 6:0.082950083 7:0.019748817 
1 1:0.723301 2:0.058252 3:0.082524 5:0.020552234 6:0.0027570028 7:0.064409189 
1 1:0.766917 2:0.015038 3:0.037594 7:0.018063451 
1 1:0.731884 2:0.007246 3:0.065217 5:0.020939871 7:0.015729939 
1 1:0.775432 2:0.011516 3:0.028791 5:0.026642613 7:0.016373299 
1 1:0.785311 2:0.014124 3:0.025424 5:0.014968765 6:0.006024006 7:0.017155848 
1 1:0.714754 2:0.059016 3:0.032787 5:0.034790452 6:0.031506032 7:0.017133146 
1 1:0.805556 2:0.013889 3:0.020833 7:0.020494579 
1 1:0.767059 2:0.014118 3:0.037647 5:0.012508759 7:0.017101866 
1 1:0.747368 2:0.015789 3:0.047368 5:0.045361025 7:0.015821567 
1 1:0.764228 2:0.00813 3:0.04878 5:0.022289148 7:0.01658239 
1 1:0.763033 2:0.014218 3:0.047393 5:0.023705515 7:0.018177091 
1 1:0.673333 2:0.046667 3:0.12 5:0.097021156 7:0.018739835 
1 1:0.71464 2:0.032258 3:0.049628 5:0.046881756 7:0.016840165 
1 1:0.773994 2:0.021672 3:0.024768 5:0.015893131 6:0.0095940096 7:0.01770747 
1 1:0.774648 2:0.023474 3:0.028169 5:0.021513873 6:0.0043290043 7:0.019838543 
1 1:0.761364 2:0.034091 3:0.051136 5:0.032226082 7:0.024043793 
1 1:0.78733 2:0.00905 3:0.0181 7:0.016140604 
1 1:0.738516 2:0.024735 3:0.053004 5:0.048409941 7:0.016590537 
1 1:0.756579 2:0.046053 3:0.026316 5:0.026814068 6:0.016188016 7:0.022304238 
1 1:0.72973 2:0.023166 3:0.034749 5:0.012963488 7:0.013537055 
1 1:0.774359 2:0.020513 3:0.025641 5:0.019478777 6:0.0052260052 7:0.01794872 8:0.023809524 
1 1:0.688073 2:0.039755 3:0.094801 5:0.068321083 7:0.018311329 
1 1:0.770718 2:0.019337 3:0.041436 5:0.036601911 7:0.020583482 
1 1:0.710744 2:0.033058 3:0.049587 5:0.068842903 7:0.01909897 
1 1:0.668269 2:0.043269 3:0.043269 5:0.062752523 7:0.017413226 
1 1:0.796053 2:0.026316 3:0.039474 5:0.012590759 6:0.01013401 7:0.023748396 
1 1:0.717391 2:0.021739 3:0.065217 5:0.063535253 7:0.015553201 
1 1:0.74026 2:0.038961 3:0.064935 5:0.071407273 7:0.020668354 
1 1:0.757642 2:0.008734 3:0.026201 5:0.026814068 7:0.014804561 
1 1:0.741538 2:0.024615 3:0.064615 5:0.056423598 7:0.019831146 
1 1:0.693548 2:0.072581 3:0.08871 5:0.043445201 6:0.01049101 7:0.042191189 
1 1:0.674419 2:0.093023 3:0.03876 5:0.11380884 6:0.038169038 7:0.018576293 
1 1:0.742373 2:0.030508 3:0.030508 5:0.041298287 7:0.014923524 
1 1:0.75419 2:0.011173 3:0.053073 5:0.014104036 7:0.018003134 
1 1:0.738351 2:0.032258 3:0.032258 5:0.053479045 6:0.0043050043 7:0.015232976 
1 1:0.715 2:0.03 3:0.065 5:0.058816513 7:0.015457317 
1 1:0.75969 2:0.023256 3:0.031008 5:0.022386057 6:0.009009009 7:0.015740213 
1 1:0.724138 2:0.078818 3:0.039409 5:0.044570841 6:0.04035904 7:0.020094921 
1 1:0.780899 2:0.005618 3:0.033708 7:0.01805289 
1 1:0.712575 2:0.077844 3:0.05988 5:0.070594725 6:0.034092034 7:0.019278518 
1 1:0.710526 2:0.040936 3:0.064327 5:0.084534761 7:0.01729425 
1 1:0.805556 2:0.009259 3:0.023148 7:0.019619463 
1 1:0.773196 2:0.005155 3:0.046392 5:0.013858035 7:0.016909732 
1 1:0.782946 2:0.007752 3:0.054264 5:0.017876046 7:0.01971072 
1 1:0.653595 2:0.039216 3:0.052288 5:0.10994737 7:0.01351028 
1 1:0.745679 2:0.05679 3:0.02963 5:0.048447214 6:0.024369024 7:0.018533573 
1 1:0.792 2:0.012 3:0.026 5:0.013872944 6:0.0037230037 7:0.019658537 
1 1:0.738197 2:0.025751 3:0.042918 5:0.048790124 7:0.01999372 
1 1:0.767888 2:0.015707 3:0.031414 5:0.022982422 6:0.0036990037 7:0.017260457 
1 1:0.749206 2:0.025397 3:0.050794 5:0.022892967 7:0.031513744 
1 1:0.762295 2:0.012295 3:0.032787 5:0.021148599 7:0.017617951 
1 1:0.739726 2:0.020548 3:0.075342 5:0.050370492 7:0.018543268 
1 1:0.785235 2:0.010067 3:0.040268 5:0.015691858 7:0.01943853 
1 1:0.765152 2:0.015152 3:0.034091 5:0.011025301 7:0.015613451 
1 1:0.747664 2:0.03271 3:0.037383 5:0.012941124 7:0.016412128 
1 1:0.743243 2:0.047297 3:0.054054 5:0.01505822 6:0.024243024 7:0.020393866 
1 1:0.661538 2:0.092308 3:0.1 5:0.075507283 7:0.050938091 
1 1:0.74359 2:0.041026 3:0.05641 5:0.053456682 6:0.0047820048 7:0.01962164 
1 1:0.786008 2:0.00823 3:0.037037 5:0.020678962 7:0.018091939 
1 1:0.771429 2:0.013187 3:0.035165 5:0.020835508 7:0.019177165 
1 1:0.773554 2:0.006612 3:0.036364 5:0.013835672 7:0.016287037 
1 1:0.693431 2:0.051095 3:0.043796 5:0.021670419 7:0.015310665 
1 1:0.572289 2:0.10241 3:0.204819 4:0.055350554 5:0.12793523 7:0.032104024 
1 1:0.754098 2:0.043716 3:0.027322 5:0.03790646 6:0.02034002 7:0.019658805 
1 1:0.769565 2:0.013043 3:0.03913 5:0.029937531 7:0.019803817 
1 1:0.754991 2:0.025408 3:0.052632 5:0.046695392 7:0.019432518 
1 1:0.674074 2:0.125926 3:0.014815 4:0.0036900369 5:0.051891223 6:0.083526084 7:0.01946703 
1 1:0.790146 2:0.020073 3:0.020073 5:0.01909114 6:0.011523012 7:0.017380274 
1 1:0.738149 2:0.029345 3:0.045147 5:0.058905968 6:0.0079020079 7:0.015677476 
